tree
version=v4
num_class=1
num_tree_per_iteration=1
label_index=0
max_feature_idx=109
objective=regression
feature_names=pm2p5 pm10 so2 no2 pm1 no blh_era5 t2m_era5 d2m_era5 wind_speed u10_era5 v10_era5 relative_humidity_approx tcc_era5 sp dewpoint_depression blh_lag_1h blh_rolling_mean_3h blh_no2_lag1_interaction no2_lag_1h pm2p5_lag_1h pm10_lag_1h so2_lag_1h t2m_era5_lag_1h wind_speed_lag_1h no2_lag_3h pm2p5_lag_3h pm10_lag_3h so2_lag_3h t2m_era5_lag_3h wind_speed_lag_3h no2_lag_6h pm2p5_lag_6h pm10_lag_6h so2_lag_6h t2m_era5_lag_6h wind_speed_lag_6h no2_lag_12h pm2p5_lag_12h pm10_lag_12h so2_lag_12h t2m_era5_lag_12h wind_speed_lag_12h no2_lag_24h pm2p5_lag_24h pm10_lag_24h so2_lag_24h t2m_era5_lag_24h wind_speed_lag_24h no2_rolling_mean_3h pm2p5_rolling_mean_3h pm10_rolling_mean_3h no2_rolling_mean_6h pm2p5_rolling_mean_6h pm10_rolling_mean_6h no2_rolling_mean_12h pm2p5_rolling_mean_12h pm10_rolling_mean_12h no2_rolling_mean_24h pm2p5_rolling_mean_24h pm10_rolling_mean_24h pm25_pm10_ratio pm25_pm10_product no2_pm25_ratio no2_pm25_product wind_u wind_v wind_u_abs wind_v_abs wind_uv_product inv inversion_strength ventilation blh_wind ventilation_rate stability hour is_weekend hour_weekend_interaction blh_roll3 blh_temp_interaction hour_temp_interaction month day_of_week is_weekday hour_sin hour_cos month_sin month_cos is_winter is_summer is_monsoon is_post_monsoon inversion_strength_abs is_night morning_peak blh_wind_interaction blh_inversion blh_inv no2lag_blhlag no2_blhlag temperature_roll3 stubble_burning_flag diwali_flag festival_flag low_wind_flag wind_stagnation_index low_blh_flag low_blh solar_elevation
feature_infos=[3.6954923000000001e-08:9.100104e-07] [5.4974710000000001e-08:1.2904101999999999e-06] [9.5540300000000004e-09:3.3887865999999998e-07] [9.9999990000000002e-15:1.6066866000000001e-07] [2.7143500000000001e-08:7.830292e-07] [4.077279e-11:3.9451206000000001e-07] [11.180888888888887:2410.7331222222219] [281.79469555555562:309.52212222222221] [277.26350888888891:299.94608777777779] [0.064031242374328404:7.9447341050534845] [-3.4596084111111107:3.9378670555555559] [-4.2027859111111114:2.547641111111111] [0.73915191264410463:95.049916075986303] [0:1] [97669.059999999998:99468.375] [0.25384000000002516:24.537110000000041] [11.180888888888887:2410.7331222222219] [11.396948814815801:2121.4471148148154] [2.1866400591137492e-13:9.9176315166423992e-05] [9.9999990000000002e-15:1.6066866000000001e-07] [3.6954923000000001e-08:9.100104e-07] [5.4974710000000001e-08:1.2904101999999999e-06] [9.5540300000000004e-09:3.3887865999999998e-07] [281.79469555555562:309.52212222222221] [0.064031242374328404:7.9447341050534845] [9.9999990000000002e-15:1.6066866000000001e-07] [3.6954923000000001e-08:9.100104e-07] [5.4974710000000001e-08:1.2904101999999999e-06] [9.5540300000000004e-09:3.3887865999999998e-07] [281.79469555555562:309.52212222222221] [0.064031242374328404:7.9447341050534845] [9.9999990000000002e-15:1.6066866000000001e-07] [3.6954923000000001e-08:9.100104e-07] [5.4974710000000001e-08:1.2904101999999999e-06] [9.5540300000000004e-09:3.3887865999999998e-07] [281.79469555555562:309.52212222222221] [0.064031242374328404:7.9447341050534845] [9.9999990000000002e-15:1.6066866000000001e-07] [3.6954923000000001e-08:9.100104e-07] [5.4974710000000001e-08:1.2904101999999999e-06] [9.5540300000000004e-09:3.3887865999999998e-07] [281.79469555555562:309.52212222222221] [0.064031242374328404:7.9447341050534845] [9.9999990000000002e-15:1.6066866000000001e-07] [3.6954923000000001e-08:9.100104e-07] [5.4974710000000001e-08:1.2904101999999999e-06] [8.9386340000000006e-09:3.3887865999999998e-07] [281.79469555555562:309.52212222222221] [0.064031242374328404:7.9447341050534845] [3.3961068027115043e-10:1.4904785333333335e-07] [4.1325125333333125e-08:9.069477666666666e-07] [6.1364036666667278e-08:1.2861983333333334e-06] [3.234614031355432e-09:1.3608802530666667e-07] [4.7932406500000001e-08:9.0450519999999989e-07] [7.0484475e-08:1.2825703666666665e-06] [8.3647732402775561e-09:1.0938177266666668e-07] [7.2116956416666673e-08:8.7571149e-07] [1.0387866250000001e-07:1.2401542666666667e-06] [1.6310302039583212e-08:9.4972638124999997e-08] [1.16757259e-07:6.5114886833333322e-07] [1.6509128783333334e-07:9.2021419416666668e-07] [0.63247017156847984:0.73063001828212859] [2.0315861749973299e-15:1.1742867022660798e-12] [1.586941595861954e-08:0.37680568259287783] [5.6958774304122006e-21:1.3260559617520799e-13] [-3.4596084111111107:3.9378670555555559] [-4.2027859111111114:2.547641111111111] [0.00094834277777770001:3.9378670555555559] [0.0017736086666666:4.2027859111111114] [-15.855506058589901:7.3325948994740715] [0.25384000000002516:24.537110000000041] [0.25384000000002516:24.537110000000041] [3.683795504851445:11617.829620427161] [3.683795504851445:11617.829620427161] [2.1379337390482225:7803.1136246914903] [0.00095613780769315392:0.64892936351961039] [0:23] [0:1] [0:23] [11.396948814815801:2121.4471148148154] [3218.3385878844447:737760.20652854093] [0:6905.5234755555557] [10:11] [0:6] [0:1] [-1:1] [-1:1] [-0.8660254037844386:-0.50000000000000044] [0.50000000000000011:0.86602540378443837] none none none none [0.25384000000002516:24.537110000000041] [0:1] none [3.683795504851445:11617.829620427161] [9.6792922601876263:48837.59856181909] [9.6792922601876263:48837.59856181909] [41.033710333333332:126746.20871319999] [41.033710333333332:126746.20871319999] [282.18653999999998:308.77166814814814] none none none none none [0:1] [0:1] [-83.11603886198003:57.02425270566691]
tree_sizes=478 496 495 494 493 497 493 494 490 497 498 496 497 491 492 493 499 497 499 500 498 493 409 496 417 497 499 502 498 497 499 411 496 497 497 496 495 411 495 413 493 495 495 498 495 503 501 493 500 503 501 494 500 496 498 493 496 497 500 501 499 502 497 499 499 489 492 495 496 495 501 499 498 586 502 411 496 412 503 498 502 501 500 504 503 585 589 589 592 408 499 494 499 492 502 501 498 504 500 506 502 497 500 495 593 506 506 501 501 503 504 503 496 497 503 505 497 497 502 496 499 498 501 498 500 503 499 502 505 496 503 497 506 502 501 501 503 502 504 414 411 501 414 412 412 496 497 504 498 495 501 498 499 499 501 500 500 496 503 497 415 597 501 497 415 501 501 418 417 417 499 496 500 505 500 501 503 504 501 500 417 501 418 417 497 498 500 500 503 500 495 418 507 416 504 596 498 497 508 496

Tree=0
num_leaves=4
num_cat=0
split_feature=82 3 64
split_gain=987429 160556 150186
threshold=10.500000000000002 5.9975667500000005e-08 3.0886883904288536e-14
decision_type=2 2 2
left_child=1 -1 -2
right_child=2 -3 -4
leaf_value=69.209612515137323 70.76858541775043 70.256103125459703 71.48081480107092
leaf_weight=363 522 209 545
leaf_count=360 255 149 164
internal_value=70.5942 69.59 71.1331
internal_weight=1639 572 1067
internal_count=928 509 419
is_linear=0
shrinkage=1


Tree=1
num_leaves=4
num_cat=0
split_feature=82 3 18
split_gain=929301 151093 141564
threshold=10.500000000000002 5.9975667500000005e-08 3.3453082069392277e-06
decision_type=2 2 2
left_child=1 -1 -2
right_child=2 -3 -4
leaf_value=-1.3540741725909855 0.84511166234972668 -0.33888063438148225 0.15337228399047778
leaf_weight=363 552 209 515
leaf_count=360 168 149 251
internal_value=-0.0108889 -0.985073 0.511962
internal_weight=1639 572 1067
internal_count=928 509 419
is_linear=0
shrinkage=0.03


Tree=2
num_leaves=4
num_cat=0
split_feature=82 3 64
split_gain=874594 142188 135930
threshold=10.500000000000002 5.9975667500000005e-08 3.0886883904288536e-14
decision_type=2 2 2
left_child=1 -1 -2
right_child=2 -3 -4
leaf_value=-1.3136191012535565 0.14984306045111406 -0.32878664750667763 0.8274082095678027
leaf_weight=363 522 209 545
leaf_count=360 255 149 164
internal_value=-0.0105805 -0.955656 0.496646
internal_weight=1639 572 1067
internal_count=928 509 419
is_linear=0
shrinkage=0.03


Tree=3
num_leaves=4
num_cat=0
split_feature=82 69 49
split_gain=823109 131640 129053
threshold=10.500000000000002 -0.97463994587253577 5.799404992000004e-08
decision_type=2 2 2
left_child=2 -2 -1
right_child=1 -3 -4
leaf_value=-1.2785471394085448 0.14808067735336741 0.81468580382019695 -0.34716199664283948
leaf_weight=355 534 533 217
leaf_count=352 246 173 157
internal_value=-0.0102805 0.481789 -0.927118
internal_weight=1639 1067 572
internal_count=928 419 509
is_linear=0
shrinkage=0.03


Tree=4
num_leaves=4
num_cat=0
split_feature=82 35 3
split_gain=774658 127670 127441
threshold=10.500000000000002 292.23859722222227 5.9975667500000005e-08
decision_type=2 2 2
left_child=2 -2 -1
right_child=1 -3 -4
leaf_value=-1.2383205353183511 0.14543763184809183 0.80203634324251416 -0.30599790634282126
leaf_weight=363 545 522 209
leaf_count=360 245 174 149
internal_value=-0.00998946 0.467377 -0.899434
internal_weight=1639 1067 572
internal_count=928 419 509
is_linear=0
shrinkage=0.03


Tree=5
num_leaves=4
num_cat=0
split_feature=64 82 49
split_gain=806469 268140 19242.7
threshold=2.340460279602283e-14 10.500000000000002 4.1186109615646304e-08
decision_type=2 2 2
left_child=1 2 -1
right_child=-2 -3 -4
leaf_value=-1.3185991390562752 0.66216460986580106 -0.038503419923846871 -0.90892306503270059
leaf_weight=238 879 368 220
leaf_count=238 306 200 202
internal_value=0.0302039 -0.642233 -1.12552
internal_weight=1705 826 458
internal_count=946 640 440
is_linear=0
shrinkage=0.03


Tree=6
num_leaves=4
num_cat=0
split_feature=88 19 75
split_gain=721203 147535 137901
threshold=0.6830127018922193 6.0948062500000013e-08 0.071188575123521239
decision_type=2 2 2
left_child=1 -1 -2
right_child=2 -3 -4
leaf_value=-1.165745599901252 0.15666516286791157 -0.19171374026279406 0.82761477169778419
leaf_weight=378 566 223 538
leaf_count=375 263 151 157
internal_value=0.0292531 -0.805785 0.484352
internal_weight=1705 601 1104
internal_count=946 526 420
is_linear=0
shrinkage=0.03


Tree=7
num_leaves=4
num_cat=0
split_feature=82 69 19
split_gain=678737 176322 138842
threshold=10.500000000000002 -1.1053107529434592 6.0948062500000013e-08
decision_type=2 2 2
left_child=2 -2 -1
right_child=1 -3 -4
leaf_value=-1.1309114646723148 0.088750755961981009 0.84687979577094119 -0.18600076097157059
leaf_weight=378 550 554 223
leaf_count=375 247 173 151
internal_value=0.0283649 0.469862 -0.781715
internal_weight=1705 1104 601
internal_count=946 420 526
is_linear=0
shrinkage=0.03


Tree=8
num_leaves=4
num_cat=0
split_feature=14 80 72
split_gain=639994 194984 41312.1
threshold=98650.89833333336 18313.621878505801 292.87056186688335
decision_type=2 2 2
left_child=2 -2 -1
right_child=1 -3 -4
leaf_value=-0.66938005343622986 0.67879938762744629 -0.091337390473611349 -1.2510515682255781
leaf_weight=259 763 482 201
leaf_count=217 250 281 198
internal_value=0.0275031 0.380855 -0.926883
internal_weight=1705 1245 460
internal_count=946 531 415
is_linear=0
shrinkage=0.03


Tree=9
num_leaves=4
num_cat=0
split_feature=64 87 75
split_gain=672578 209313 20711.3
threshold=2.340460279602283e-14 -0.68301270189221941 0.028421718307395132
decision_type=2 2 2
left_child=1 2 -1
right_child=-2 -3 -4
leaf_value=-1.2225589201539038 0.60376511477733597 -0.053930395194738898 -0.80316640496638514
leaf_weight=227 879 368 231
leaf_count=224 306 200 216
internal_value=0.0266405 -0.587442 -1.01444
internal_weight=1705 826 458
internal_count=946 640 440
is_linear=0
shrinkage=0.03


Tree=10
num_leaves=4
num_cat=0
split_feature=64 82 58
split_gain=619585 189871 12131.5
threshold=2.340460279602283e-14 10.500000000000002 4.2065931370000014e-08
decision_type=2 2 2
left_child=1 2 -1
right_child=-2 -3 -4
leaf_value=-1.1626743280019698 0.58433842404809766 -0.079735880063955974 -0.82278203952753981
leaf_weight=232 832 365 201
leaf_count=232 295 203 192
internal_value=0.0120074 -0.584629 -1.00838
internal_weight=1630 798 433
internal_count=922 627 424
is_linear=0
shrinkage=0.03


Tree=11
num_leaves=4
num_cat=0
split_feature=64 82 75
split_gain=583123 178727 12259.8
threshold=2.340460279602283e-14 10.500000000000002 0.028421718307395132
decision_type=2 2 2
left_child=1 2 -1
right_child=-2 -3 -4
leaf_value=-1.1465045693966185 0.56683982768992702 -0.077353589694138913 -0.80713149729178468
leaf_weight=214 832 365 219
leaf_count=211 295 203 213
internal_value=0.0116038 -0.56721 -0.978341
internal_weight=1630 798 433
internal_count=922 627 424
is_linear=0
shrinkage=0.03


Tree=12
num_leaves=4
num_cat=0
split_feature=64 82 75
split_gain=548809 168238 11537.7
threshold=2.340460279602283e-14 10.500000000000002 0.028421718307395132
decision_type=2 2 2
left_child=1 2 -1
right_child=-2 -3 -4
leaf_value=-1.1123488444795187 0.54986523158781242 -0.075042483965989504 -0.78308227464455327
leaf_weight=214 832 365 219
leaf_count=211 295 203 213
internal_value=0.0112129 -0.550311 -0.949196
internal_weight=1630 798 433
internal_count=922 627 424
is_linear=0
shrinkage=0.03


Tree=13
num_leaves=4
num_cat=0
split_feature=14 75 75
split_gain=532633 207545 29089.5
threshold=98650.89833333336 0.050093649178672546 0.049406745389781494
decision_type=2 2 2
left_child=2 -2 -1
right_child=1 -3 -4
leaf_value=-1.0948990185794398 -0.14638675976255622 0.66491913022108196 -0.59912254719838609
leaf_weight=242 469 715 204
leaf_count=236 271 235 180
internal_value=0.0108348 0.343732 -0.871
internal_weight=1630 1184 446
internal_count=922 506 416
is_linear=0
shrinkage=0.03


Tree=14
num_leaves=4
num_cat=0
split_feature=14 75 75
split_gain=501318 195308 27375.7
threshold=98650.89833333336 0.050093649178672546 0.049406745389781494
decision_type=2 2 2
left_child=2 -2 -1
right_child=1 -3 -4
leaf_value=-1.062254391774015 -0.14200915742629899 0.64501331986369403 -0.5812800648264641
leaf_weight=242 469 715 204
leaf_count=236 271 235 180
internal_value=0.0104749 0.333439 -0.845044
internal_weight=1630 1184 446
internal_count=922 506 416
is_linear=0
shrinkage=0.03


Tree=15
num_leaves=4
num_cat=0
split_feature=82 10 58
split_gain=534506 104272 63818.8
threshold=10.500000000000002 0.9203003694444446 4.571337411875001e-08
decision_type=2 2 2
left_child=2 -2 -1
right_child=1 -3 -4
leaf_value=-0.98271779668455139 0.72019869297982952 0.12822604621599798 -0.33253326740331257
leaf_weight=335 526 546 232
leaf_count=332 163 249 187
internal_value=0.0254389 0.419333 -0.71834
internal_weight=1639 1072 567
internal_count=931 412 519
is_linear=0
shrinkage=0.03


Tree=16
num_leaves=4
num_cat=0
split_feature=82 64 58
split_gain=503047 119681 60126.1
threshold=10.500000000000002 2.8069509061047804e-14 4.4619803615694457e-08
decision_type=2 2 2
left_child=2 -2 -1
right_child=1 -3 -4
leaf_value=-0.97273756411403278 0.10867573733404866 0.74386357272955728 -0.34820068699544704
leaf_weight=315 570 502 252
leaf_count=315 264 148 204
internal_value=0.0246621 0.406789 -0.696896
internal_weight=1639 1072 567
internal_count=931 412 519
is_linear=0
shrinkage=0.03


Tree=17
num_leaves=4
num_cat=0
split_feature=82 64 58
split_gain=473444 112627 56761.8
threshold=10.500000000000002 2.8069509061047804e-14 4.571337411875001e-08
decision_type=2 2 2
left_child=2 -2 -1
right_child=1 -3 -4
leaf_value=-0.9254292266755012 0.10542402557187817 0.72161415075000968 -0.31224245077984236
leaf_weight=335 570 502 232
leaf_count=332 264 148 187
internal_value=0.0239086 0.394623 -0.676096
internal_weight=1639 1072 567
internal_count=931 412 519
is_linear=0
shrinkage=0.03


Tree=18
num_leaves=4
num_cat=0
split_feature=87 64 52
split_gain=445581 105990 55584.8
threshold=-0.68301270189221941 2.8069509061047804e-14 5.4580385500000012e-08
decision_type=2 2 2
left_child=2 -2 -1
right_child=1 -3 -4
leaf_value=-0.89458579909568581 0.10226960382749402 0.70003021736249194 -0.2840195124412167
leaf_weight=344 570 502 223
leaf_count=344 264 148 175
internal_value=0.0231792 0.38282 -0.655913
internal_weight=1639 1072 567
internal_count=931 412 519
is_linear=0
shrinkage=0.03


Tree=19
num_leaves=4
num_cat=0
split_feature=14 64 19
split_gain=423610 145876 13109.6
threshold=98646.613333333342 2.8623527910043412e-14 4.2944010833333335e-08
decision_type=2 2 2
left_child=2 -2 -1
right_child=1 -3 -4
leaf_value=-0.94513337117068619 0.011808279583302526 0.67482408217410916 -0.60357404611850607
leaf_weight=219 659 545 216
leaf_count=219 347 167 198
internal_value=0.0224727 0.312431 -0.778292
internal_weight=1639 1204 435
internal_count=931 514 417
is_linear=0
shrinkage=0.03


Tree=20
num_leaves=4
num_cat=0
split_feature=82 75 58
split_gain=340759 123002 69079.1
threshold=10.500000000000002 0.071188575123521239 4.4763554279166674e-08
decision_type=2 2 2
left_child=2 -2 -1
right_child=1 -3 -4
leaf_value=-0.88539767368749978 0.010678249234667165 0.65247989440887744 -0.22420906185828385
leaf_weight=304 543 531 269
leaf_count=304 261 162 206
internal_value=0.0133924 0.328503 -0.576471
internal_weight=1647 1074 573
internal_count=933 423 510
is_linear=0
shrinkage=0.03


Tree=21
num_leaves=4
num_cat=0
split_feature=14 6 58
split_gain=326577 124893 20781
threshold=98650.89833333336 59.798810944444448 4.4763554279166674e-08
decision_type=2 2 2
left_child=2 -2 -1
right_child=1 -3 -4
leaf_value=-0.87265219417060769 0.52456583514883215 -0.094723661886928198 -0.45210416136249415
leaf_weight=241 707 499 200
leaf_count=241 236 286 170
internal_value=0.0129776 0.268489 -0.684208
internal_weight=1647 1206 441
internal_count=933 522 411
is_linear=0
shrinkage=0.03


Tree=22
num_leaves=3
num_cat=0
split_feature=64 8
split_gain=336408 104007
threshold=2.4501042710513924e-14 289.82261833333337
decision_type=2 2
left_child=1 -1
right_child=-2 -3
leaf_value=-0.1536594168756106 0.45492777493721109 -0.84561005502402686
leaf_weight=546 797 304
leaf_count=351 278 304
internal_value=0.0125614 -0.40224
internal_weight=1647 850
internal_count=933 655
is_linear=0
shrinkage=0.03


Tree=23
num_leaves=4
num_cat=0
split_feature=64 82 72
split_gain=316587 99033.9 10399.8
threshold=2.4501042710513924e-14 10.500000000000002 250.10256117959977
decision_type=2 2 2
left_child=1 2 -1
right_child=-2 -3 -4
leaf_value=-0.53854436135181927 0.44130557643523721 -0.04860901625658879 -0.83910619354860683
leaf_weight=215 797 403 232
leaf_count=203 278 220 232
internal_value=0.012168 -0.390227 -0.696926
internal_weight=1647 850 447
internal_count=933 655 435
is_linear=0
shrinkage=0.03


Tree=24
num_leaves=3
num_cat=0
split_feature=64 64
split_gain=297953 95738.1
threshold=2.4501042710513924e-14 5.8847665850214296e-15
decision_type=2 2
left_child=1 -1
right_child=-2 -3
leaf_value=-0.84243078851262354 0.42809128210265779 -0.15980987976533806
leaf_weight=271 797 579
leaf_count=256 278 399
internal_value=0.0117737 -0.378599
internal_weight=1647 850
internal_count=933 655
is_linear=0
shrinkage=0.03


Tree=25
num_leaves=4
num_cat=0
split_feature=14 75 75
split_gain=287289 167851 19728.5
threshold=98650.89833333336 0.049406745389781494 0.058679108565580652
decision_type=2 2 2
left_child=2 -2 -1
right_child=1 -3 -4
leaf_value=-0.83337250509561922 -0.22392251014298878 0.52052712836275372 -0.42599777175762032
leaf_weight=245 434 728 201
leaf_count=242 266 242 177
internal_value=-0.00592084 0.242511 -0.651924
internal_weight=1608 1162 446
internal_count=927 508 419
is_linear=0
shrinkage=0.03


Tree=26
num_leaves=4
num_cat=0
split_feature=64 14 75
split_gain=286699 99293.9 30636.4
threshold=2.5223072971080161e-14 98807.021666666682 0.040087348729513493
decision_type=2 2 2
left_child=1 2 -1
right_child=-2 -3 -4
leaf_value=-0.83162583595906003 0.43579464507406529 0.050237000750604506 -0.38414712159767034
leaf_weight=280 725 323 280
leaf_count=274 248 170 235
internal_value=-0.00577097 -0.3685 -0.609591
internal_weight=1608 883 560
internal_count=927 679 509
is_linear=0
shrinkage=0.03


Tree=27
num_leaves=4
num_cat=0
split_feature=64 8 20
split_gain=269906 84836.3 11652.2
threshold=2.5379500072540601e-14 287.94141222222225 2.4422752500000009e-07
decision_type=2 2 2
left_child=1 -1 -3
right_child=-2 2 -4
leaf_value=-0.071296775274519539 0.42605719055176444 -0.80644418483953073 -0.48389142391416762
leaf_weight=460 719 228 201
leaf_count=280 245 228 174
internal_value=-0.0056174 -0.354925 -0.657635
internal_weight=1608 889 429
internal_count=927 682 402
is_linear=0
shrinkage=0.03


Tree=28
num_leaves=4
num_cat=0
split_feature=64 14 6
split_gain=254021 90279.8 26207.1
threshold=2.5379500072540601e-14 98794.645000000004 114.88495572222223
decision_type=2 2 2
left_child=1 2 -1
right_child=-2 -3 -4
leaf_value=-0.40197583969538508 0.41330208879514829 0.042462365696952296 -0.82495422257846684
leaf_weight=322 719 337 230
leaf_count=274 245 178 230
internal_value=-0.00547588 -0.344349 -0.580056
internal_weight=1608 889 552
internal_count=927 682 504
is_linear=0
shrinkage=0.03


Tree=29
num_leaves=4
num_cat=0
split_feature=64 14 73
split_gain=239070 85731.5 24424.5
threshold=2.5223072971080161e-14 98807.021666666682 406.52635506343302
decision_type=2 2 2
left_child=1 2 -1
right_child=-2 -3 -4
leaf_value=-0.4045239163637161 0.39788785975162355 0.052491274734123829 -0.81772751130783083
leaf_weight=351 725 323 209
leaf_count=300 248 170 209
internal_value=-0.00533232 -0.336566 -0.56059
internal_weight=1608 883 560
internal_count=927 679 509
is_linear=0
shrinkage=0.03


Tree=30
num_leaves=4
num_cat=0
split_feature=64 14 16
split_gain=265086 61983.6 25980.4
threshold=2.0128793101283301e-14 98794.645000000004 225.68562222222224
decision_type=2 2 2
left_child=1 2 -1
right_child=-2 -3 -4
leaf_value=-0.42128009755952017 0.33810636417452977 -0.04532532111606976 -0.86960751431406502
leaf_weight=261 914 251 218
leaf_count=237 353 140 218
internal_value=-0.00207727 -0.427887 -0.627492
internal_weight=1644 730 479
internal_count=948 595 455
is_linear=0
shrinkage=0.03


Tree=31
num_leaves=3
num_cat=0
split_feature=75 99
split_gain=234421 246931
threshold=0.024357961685924214 2895.6386929722225
decision_type=2 2
left_child=-1 -2
right_child=1 -3
leaf_value=-0.68670718809840026 -0.2464202750937553 0.58283493648409712
leaf_weight=352 620 672
leaf_count=325 374 249
internal_value=-0.00204306 0.185036
internal_weight=1644 1292
internal_count=948 623
is_linear=0
shrinkage=0.03


Tree=32
num_leaves=4
num_cat=0
split_feature=14 75 75
split_gain=245837 120088 13256.3
threshold=98654.61583333333 0.053239394350949591 0.048456842110051565
decision_type=2 2 2
left_child=2 -2 -1
right_child=1 -3 -4
leaf_value=-0.7347323023257869 -0.15226118112240908 0.46830875973585473 -0.40647927012685292
leaf_weight=251 457 723 213
leaf_count=248 274 234 192
internal_value=-0.00199135 0.228043 -0.585939
internal_weight=1644 1180 464
internal_count=948 508 440
is_linear=0
shrinkage=0.03


Tree=33
num_leaves=4
num_cat=0
split_feature=3 99 101
split_gain=228868 170153 43000.3
threshold=5.2976513166666675e-08 2905.482890895556 296.03322907407414
decision_type=2 2 2
left_child=2 -2 -1
right_child=1 -3 -4
leaf_value=-0.17703488291686212 -0.15556008932309687 0.62235110582660302 -0.67910558449772163
leaf_weight=280 457 564 343
leaf_count=175 244 201 328
internal_value=-0.00195499 0.274396 -0.454495
internal_weight=1644 1021 623
internal_count=948 445 503
is_linear=0
shrinkage=0.03


Tree=34
num_leaves=4
num_cat=0
split_feature=14 75 75
split_gain=222610 111431 11838.8
threshold=98654.61583333333 0.053239394350949591 0.048456842110051565
decision_type=2 2 2
left_child=2 -2 -1
right_child=1 -3 -4
leaf_value=-0.69824244435352845 -0.14934239034954308 0.44843440489554254 -0.38790365121109166
leaf_weight=251 457 723 213
leaf_count=248 274 234 192
internal_value=-0.00190782 0.216989 -0.557587
internal_weight=1644 1180 464
internal_count=948 508 440
is_linear=0
shrinkage=0.03


Tree=35
num_leaves=4
num_cat=0
split_feature=14 67 58
split_gain=189282 134768 10584.5
threshold=98673.416666666672 1.0370360716666667 4.5303008647831062e-08
decision_type=2 2 2
left_child=2 -2 -1
right_child=1 -3 -4
leaf_value=-0.62075810793751207 0.62124136325468349 -0.037336086916470508 -0.3289618411888971
leaf_weight=257 460 709 211
leaf_count=257 160 337 172
internal_value=0.0181082 0.222239 -0.490768
internal_weight=1637 1169 468
internal_count=926 497 429
is_linear=0
shrinkage=0.03


Tree=36
num_leaves=4
num_cat=0
split_feature=82 10 3
split_gain=178670 106955 25233.3
threshold=10.500000000000002 0.8860368694444446 5.9030370333333344e-08
decision_type=2 2 2
left_child=2 -2 -1
right_child=1 -3 -4
leaf_value=-0.56661570468516476 0.5416371423769657 -0.057648678333775037 -0.15158038809651234
leaf_weight=355 541 529 212
leaf_count=352 172 244 158
internal_value=0.0175524 0.245647 -0.412324
internal_weight=1637 1070 567
internal_count=926 416 510
is_linear=0
shrinkage=0.03


Tree=37
num_leaves=3
num_cat=0
split_feature=49 99
split_gain=171651 181858
threshold=3.8509167222222258e-08 2395.0788615694451
decision_type=2 2
left_child=-1 -2
right_child=1 -3
leaf_value=-0.55913657194006028 -0.34004107328483452 0.42630524782936807
leaf_weight=361 409 867
leaf_count=322 268 336
internal_value=0.0170169 0.18052
internal_weight=1637 1276
internal_count=926 604
is_linear=0
shrinkage=0.03


Tree=38
num_leaves=4
num_cat=0
split_feature=14 67 75
split_gain=164210 122473 14628.7
threshold=98673.416666666672 1.0370360716666667 0.058134590140939559
decision_type=2 2 2
left_child=2 -2 -1
right_child=1 -3 -4
leaf_value=-0.60370295586541434 0.58699443012556685 -0.040813640990280751 -0.26168308384002575
leaf_weight=266 460 709 202
leaf_count=260 160 337 169
internal_value=0.0164918 0.206625 -0.457483
internal_weight=1637 1169 468
internal_count=926 497 429
is_linear=0
shrinkage=0.03


Tree=39
num_leaves=3
num_cat=0
split_feature=49 100
split_gain=157614 169258
threshold=3.8509167222222258e-08 2395.0788615694451
decision_type=2 2
left_child=-1 -2
right_child=1 -3
leaf_value=-0.53610590487883003 -0.32953601616236239 0.40978198006157224
leaf_weight=361 409 867
leaf_count=322 268 336
internal_value=0.0159858 0.172662
internal_weight=1637 1276
internal_count=926 604
is_linear=0
shrinkage=0.03


Tree=40
num_leaves=4
num_cat=0
split_feature=75 99 14
split_gain=153383 191821 52396.4
threshold=0.048154181814717541 2905.482890895556 98807.021666666682
decision_type=2 2 2
left_child=2 -2 -1
right_child=1 -3 -4
leaf_value=-0.5738307902445281 -0.14720380662564894 0.70316273682541552 -0.050837775972730294
leaf_weight=390 523 437 309
leaf_count=357 292 140 162
internal_value=-0.0056347 0.240336 -0.343305
internal_weight=1659 960 699
internal_count=951 432 519
is_linear=0
shrinkage=0.03


Tree=41
num_leaves=4
num_cat=0
split_feature=75 99 14
split_gain=144379 178744 50311.2
threshold=0.048969681482838236 2746.905485294445 98807.021666666682
decision_type=2 2 2
left_child=2 -2 -1
right_child=1 -3 -4
leaf_value=-0.54957350198982069 -0.16911823620905367 0.65499991793938495 -0.042258503539059696
leaf_weight=400 479 466 314
leaf_count=364 275 148 164
internal_value=-0.00546833 0.237619 -0.327088
internal_weight=1659 945 714
internal_count=951 423 528
is_linear=0
shrinkage=0.03


Tree=42
num_leaves=4
num_cat=0
split_feature=75 99 14
split_gain=136033 170976 46405.7
threshold=0.048154181814717541 2905.482890895556 98807.021666666682
decision_type=2 2 2
left_child=2 -2 -1
right_child=1 -3 -4
leaf_value=-0.54025778902901544 -0.13953973371915526 0.66329020759738566 -0.048058377809570604
leaf_weight=390 523 437 309
leaf_count=357 292 140 162
internal_value=-0.00530797 0.226333 -0.323309
internal_weight=1659 960 699
internal_count=951 432 519
is_linear=0
shrinkage=0.03


Tree=43
num_leaves=4
num_cat=0
split_feature=58 47 75
split_gain=190620 79921.7 18674
threshold=6.1106848211805575e-08 292.66475500000007 0.025150045822048338
decision_type=2 2 2
left_child=1 -1 -3
right_child=-2 2 -4
leaf_value=0.05306563351200292 0.5348405517553706 -0.62810554087969039 -0.29367592277364946
leaf_weight=595 433 257 374
leaf_count=247 154 251 299
internal_value=-0.00515129 -0.196323 -0.431123
internal_weight=1659 1226 631
internal_count=951 797 550
is_linear=0
shrinkage=0.03


Tree=44
num_leaves=4
num_cat=0
split_feature=8 10 85
split_gain=125410 107471 64584.9
threshold=289.89056777777779 0.8860368694444446 -0.37940952255126059
decision_type=2 2 2
left_child=1 -1 -3
right_child=-2 2 -4
leaf_value=0.45825818197556029 -0.50282744695006554 0.17698217670479849 -0.37149551273013964
leaf_weight=533 356 388 382
leaf_count=200 341 154 256
internal_value=-0.00500499 0.131395 -0.0952547
internal_weight=1659 1303 770
internal_count=951 610 410
is_linear=0
shrinkage=0.03


Tree=45
num_leaves=4
num_cat=0
split_feature=58 75 99
split_gain=132582 86110.4 50907.4
threshold=6.1225215895833341e-08 0.031992061704884937 2568.8265157840005
decision_type=2 2 2
left_child=1 -1 -3
right_child=-2 2 -4
leaf_value=-0.56737972128304248 0.44532204357619137 -0.24758532651507273 0.22113180561465343
leaf_weight=341 435 397 436
leaf_count=326 150 280 166
internal_value=-0.00112826 -0.166946 -0.00224396
internal_weight=1609 1174 833
internal_count=922 772 446
is_linear=0
shrinkage=0.03


Tree=46
num_leaves=4
num_cat=0
split_feature=58 47 58
split_gain=124775 64194.1 22683.1
threshold=6.1225215895833341e-08 292.66475500000007 4.779500846357711e-08
decision_type=2 2 2
left_child=1 -1 -3
right_child=-2 2 -4
leaf_value=0.070220940496410936 0.43200828716107659 -0.52171622228525916 -0.14814486302178481
leaf_weight=560 435 369 245
leaf_count=239 150 363 170
internal_value=-0.00109773 -0.16196 -0.37345
internal_weight=1609 1174 614
internal_count=922 772 533
is_linear=0
shrinkage=0.03


Tree=47
num_leaves=4
num_cat=0
split_feature=99 80 14
split_gain=104851 179600 45561.2
threshold=1958.7260249322223 15249.936785152395 98794.645000000004
decision_type=2 2 2
left_child=-1 -2 -3
right_child=1 2 -4
leaf_value=-0.45270579597673094 0.58318296008392279 -0.37428411186770355 0.086706367221179456
leaf_weight=358 480 404 367
leaf_count=268 141 341 172
internal_value=-0.00106864 0.128528 -0.15505
internal_weight=1609 1251 771
internal_count=922 654 513
is_linear=0
shrinkage=0.03


Tree=48
num_leaves=4
num_cat=0
split_feature=58 75 99
split_gain=114436 76818.6 45213
threshold=6.1225215895833341e-08 0.031992061704884937 2974.374366055556
decision_type=2 2 2
left_child=1 -1 -3
right_child=-2 2 -4
leaf_value=-0.53330756038207106 0.41373334568800385 -0.19451519838346842 0.25011728136796418
leaf_weight=341 435 468 365
leaf_count=326 150 312 134
internal_value=-0.00104013 -0.155095 0.000357217
internal_weight=1609 1174 833
internal_count=922 772 446
is_linear=0
shrinkage=0.03


Tree=49
num_leaves=4
num_cat=0
split_feature=58 47 58
split_gain=107697 55604.1 19563.5
threshold=6.1225215895833341e-08 292.66475500000007 4.779500846357711e-08
decision_type=2 2 2
left_child=1 -1 -3
right_child=-2 2 -4
leaf_value=0.065623225614839867 0.40136399321539701 -0.48499169772211842 -0.13803169486919536
leaf_weight=560 435 369 245
leaf_count=239 150 363 170
internal_value=-0.00100988 -0.150461 -0.347294
internal_weight=1609 1174 614
internal_count=922 772 533
is_linear=0
shrinkage=0.03


Tree=50
num_leaves=4
num_cat=0
split_feature=64 14 18
split_gain=135463 64041.1 15152.5
threshold=3.1531994838354133e-14 98814.865833333359 3.8992017340462332e-06
decision_type=2 2 2
left_child=1 2 -1
right_child=-2 -3 -4
leaf_value=-0.17894270351291758 0.40478873589143999 0.12191242048368123 -0.46810730649514143
leaf_weight=281 554 418 399
leaf_count=212 179 196 366
internal_value=0.0229387 -0.169974 -0.349337
internal_weight=1652 1098 680
internal_count=953 774 578
is_linear=0
shrinkage=0.03


Tree=51
num_leaves=4
num_cat=0
split_feature=64 41 75
split_gain=127482 66531 6932.2
threshold=3.1531994838354133e-14 290.1921411111112 0.028183327118363567
decision_type=2 2 2
left_child=1 -1 -3
right_child=-2 2 -4
leaf_value=0.14438074238458473 0.39267786268067728 -0.46210248997055481 -0.2649156626761302
leaf_weight=398 554 266 434
leaf_count=191 179 257 326
internal_value=0.0222464 -0.164896 -0.340739
internal_weight=1652 1098 700
internal_count=953 774 583
is_linear=0
shrinkage=0.03


Tree=52
num_leaves=4
num_cat=0
split_feature=64 41 43
split_gain=119972 62616.8 6274.21
threshold=3.1531994838354133e-14 290.1921411111112 6.0958130000000017e-08
decision_type=2 2 2
left_child=1 -1 -3
right_child=-2 2 -4
leaf_value=0.14006558520325432 0.38092933694324871 -0.40209344480812614 -0.21489166024640119
leaf_weight=398 554 430 270
leaf_count=191 179 394 189
internal_value=0.0215731 -0.159973 -0.330565
internal_weight=1652 1098 700
internal_count=953 774 583
is_linear=0
shrinkage=0.03


Tree=53
num_leaves=4
num_cat=0
split_feature=64 41 75
split_gain=112904 58931.3 6434.48
threshold=3.1531994838354133e-14 290.1921411111112 0.028183327118363567
decision_type=2 2 2
left_child=1 -1 -3
right_child=-2 2 -4
leaf_value=0.13587939464702772 0.36953231728608066 -0.43756067258704484 -0.2476952916671159
leaf_weight=398 554 266 434
leaf_count=191 179 257 326
internal_value=0.0209224 -0.155193 -0.32069
internal_weight=1652 1098 700
internal_count=953 774 583
is_linear=0
shrinkage=0.03


Tree=54
num_leaves=4
num_cat=0
split_feature=58 75 75
split_gain=123386 71497 9712.53
threshold=6.3721933083333353e-08 0.043847142043914121 0.019409975967973777
decision_type=2 2 2
left_child=1 2 -1
right_child=-2 -3 -4
leaf_value=-0.53244960630149163 0.47949859468152134 0.059569463096187755 -0.26540859877227069
leaf_weight=255 398 751 248
leaf_count=249 134 385 185
internal_value=0.020289 -0.12582 -0.402057
internal_weight=1652 1254 503
internal_count=953 819 434
is_linear=0
shrinkage=0.03


Tree=55
num_leaves=4
num_cat=0
split_feature=8 61 13
split_gain=99147.1 111982 5242.88
threshold=288.19097975505861 0.70700593396835065 0.010820005692222152
decision_type=2 2 2
left_child=1 -1 -2
right_child=2 -3 -4
leaf_value=-0.206196657781308 -0.24915432734501197 0.40198517063270461 -0.44969468806602608
leaf_weight=438 290 716 209
leaf_count=195 248 320 191
internal_value=0.0183601 0.171143 -0.334334
internal_weight=1653 1154 499
internal_count=954 515 439
is_linear=0
shrinkage=0.03


Tree=56
num_leaves=4
num_cat=0
split_feature=58 75 75
split_gain=116691 54908 9803.7
threshold=6.1106848211805575e-08 0.044518670717399372 0.019409975967973777
decision_type=2 2 2
left_child=1 2 -1
right_child=-2 -3 -4
leaf_value=-0.5179134344180466 0.43419515973954487 0.031492963041068973 -0.24595712084112092
leaf_weight=238 442 723 250
leaf_count=235 163 372 184
internal_value=0.0177931 -0.1345 -0.379864
internal_weight=1653 1211 488
internal_count=954 791 419
is_linear=0
shrinkage=0.03


Tree=57
num_leaves=4
num_cat=0
split_feature=58 7 79
split_gain=109823 40997.9 13974.5
threshold=6.1106848211805575e-08 294.19674555555565 445.74931555555662
decision_type=2 2 2
left_child=1 -1 -3
right_child=-2 2 -4
leaf_value=0.019429081324794588 0.42121336088105277 -0.20254961266459487 -0.52271856771448633
leaf_weight=697 442 306 208
leaf_count=322 163 264 205
internal_value=0.0172504 -0.130493 -0.333343
internal_weight=1653 1211 514
internal_count=954 791 469
is_linear=0
shrinkage=0.03


Tree=58
num_leaves=4
num_cat=0
split_feature=58 8 18
split_gain=103359 39530.9 28104.2
threshold=6.1106848211805575e-08 289.52005666666673 4.153086349964682e-06
decision_type=2 2 2
left_child=1 2 -1
right_child=-2 -3 -4
leaf_value=0.13628766603208886 0.40861969351634092 -0.38136987659058824 -0.21577310029143043
leaf_weight=485 442 376 350
leaf_count=191 163 364 236
internal_value=0.0167243 -0.126604 -0.0113512
internal_weight=1653 1211 835
internal_count=954 791 427
is_linear=0
shrinkage=0.03


Tree=59
num_leaves=4
num_cat=0
split_feature=58 75 75
split_gain=97272.5 48488.9 8454.16
threshold=6.1106848211805575e-08 0.044518670717399372 0.019409975967973777
decision_type=2 2 2
left_child=1 2 -1
right_child=-2 -3 -4
leaf_value=-0.4816130619244125 0.39640257079276048 0.03315632676786702 -0.22901936502966133
leaf_weight=238 442 723 250
leaf_count=235 163 372 184
internal_value=0.0162204 -0.122823 -0.353401
internal_weight=1653 1211 488
internal_count=954 791 419
is_linear=0
shrinkage=0.03


Tree=60
num_leaves=4
num_cat=0
split_feature=75 99 28
split_gain=81868.4 145411 14551.6
threshold=0.048969681482838236 2932.2880352500001 9.5172041666666694e-08
decision_type=2 2 2
left_child=2 -2 -1
right_child=1 -3 -4
leaf_value=-0.38501430743954718 -0.17795753647597082 0.55924905155472826 -0.10146912786402279
leaf_weight=405 527 441 275
leaf_count=354 302 135 152
internal_value=-0.0189102 0.158197 -0.270887
internal_weight=1648 968 680
internal_count=943 437 506
is_linear=0
shrinkage=0.03


Tree=61
num_leaves=4
num_cat=0
split_feature=75 61 28
split_gain=77048.6 43262.9 13693.4
threshold=0.048969681482838236 0.7076708812608935 9.5172041666666694e-08
decision_type=2 2 2
left_child=2 -2 -1
right_child=1 -3 -4
leaf_value=-0.37350650080675568 -0.080286293061651554 0.32505738259480405 -0.098441570026843825
leaf_weight=405 410 558 275
leaf_count=354 167 270 152
internal_value=-0.0183466 0.153468 -0.262795
internal_weight=1648 968 680
internal_count=943 437 506
is_linear=0
shrinkage=0.03


Tree=62
num_leaves=4
num_cat=0
split_feature=67 85 35
split_gain=58816.7 55927.8 11505.5
threshold=0.73765818433333341 -0.60355339059327362 294.04518611111115
decision_type=2 2 2
left_child=-1 -2 -3
right_child=1 2 -4
leaf_value=0.2959979977626836 0.13869707490594244 -0.36991328655973693 -0.13285821054652694
leaf_weight=404 468 467 309
leaf_count=200 210 290 243
internal_value=-0.0178032 -0.119983 -0.276015
internal_weight=1648 1244 776
internal_count=943 743 533
is_linear=0
shrinkage=0.03


Tree=63
num_leaves=4
num_cat=0
split_feature=99 18 7
split_gain=68981.7 153133 18031.2
threshold=2037.4819476333334 3.6713250891219018e-06 294.60762222222223
decision_type=2 2 2
left_child=-1 -2 -3
right_child=1 2 -4
leaf_value=-0.37041625774622544 0.49425582839756405 -0.049247335155469571 -0.34309800031015103
leaf_weight=381 504 428 335
leaf_count=276 156 209 302
internal_value=-0.0172701 0.0892015 -0.178743
internal_weight=1648 1267 763
internal_count=943 667 511
is_linear=0
shrinkage=0.03


Tree=64
num_leaves=4
num_cat=0
split_feature=75 61 28
split_gain=67682.4 39437 12292.4
threshold=0.048969681482838236 0.7076708812608935 9.5172041666666694e-08
decision_type=2 2 2
left_child=2 -2 -1
right_child=1 -3 -4
leaf_value=-0.35076289009893952 -0.078898623655046615 0.30809982261123586 -0.090165935541363346
leaf_weight=405 410 558 275
leaf_count=354 167 270 152
internal_value=-0.0167602 0.14427 -0.245871
internal_weight=1648 968 680
internal_count=943 437 506
is_linear=0
shrinkage=0.03


Tree=65
num_leaves=4
num_cat=0
split_feature=99 6 67
split_gain=85487 118551 29642.6
threshold=2037.4819476333334 48.910458195555563 1.3412348265750287
decision_type=2 2 2
left_child=-1 -2 -3
right_child=1 2 -4
leaf_value=-0.40194953393490318 0.49831173918142507 0.12693281877639717 -0.24123273886660718
leaf_weight=372 461 317 514
leaf_count=276 131 179 373
internal_value=-0.0021263 0.113291 -0.10076
internal_weight=1664 1292 831
internal_count=959 683 552
is_linear=0
shrinkage=0.03


Tree=66
num_leaves=4
num_cat=0
split_feature=99 80 67
split_gain=80454.6 111842 27219
threshold=2037.4819476333334 14727.430260925104 1.3412348265750287
decision_type=2 2 2
left_child=-1 -2 -3
right_child=1 2 -4
leaf_value=-0.38993947428871828 0.47827901559505581 0.11911010437034535 -0.23594671607629294
leaf_weight=372 470 312 510
leaf_count=276 134 177 372
internal_value=-0.00206218 0.109906 -0.101154
internal_weight=1664 1292 822
internal_count=959 683 549
is_linear=0
shrinkage=0.03


Tree=67
num_leaves=4
num_cat=0
split_feature=99 80 67
split_gain=75963.4 105758 25946.9
threshold=2119.9662082466134 14727.430260925104 1.3681216416666671
decision_type=2 2 2
left_child=-1 -2 -3
right_child=1 2 -4
leaf_value=-0.36274575593493158 0.47633989102039176 0.11944115670199471 -0.22858430225599216
leaf_weight=398 456 313 497
leaf_count=293 129 178 359
internal_value=-0.00200028 0.111669 -0.0940727
internal_weight=1664 1266 810
internal_count=959 666 537
is_linear=0
shrinkage=0.03


Tree=68
num_leaves=4
num_cat=0
split_feature=99 80 75
split_gain=71490.7 99526.7 24587.8
threshold=2119.9662082466134 14727.430260925104 0.024357961685924214
decision_type=2 2 2
left_child=-1 -2 -3
right_child=1 2 -4
leaf_value=-0.35190424236770868 0.46209655097664376 -0.2769222300471621 0.0553976433367619
leaf_weight=398 456 357 453
leaf_count=293 129 306 231
internal_value=-0.00193934 0.108332 -0.0912549
internal_weight=1664 1266 810
internal_count=959 666 537
is_linear=0
shrinkage=0.03


Tree=69
num_leaves=4
num_cat=0
split_feature=99 6 14
split_gain=67412.3 93505.6 24455.7
threshold=2037.4819476333334 48.910458195555563 98794.645000000004
decision_type=2 2 2
left_child=-1 -2 -3
right_child=1 2 -4
leaf_value=-0.35693487310505295 0.44254843318075743 -0.2418338469446982 0.083759569936502298
leaf_weight=372 461 442 389
leaf_count=276 131 364 188
internal_value=-0.00188335 0.100606 -0.0894897
internal_weight=1664 1292 831
internal_count=959 683 552
is_linear=0
shrinkage=0.03


Tree=70
num_leaves=4
num_cat=0
split_feature=58 75 100
split_gain=50079.1 31562.4 41737.8
threshold=6.540891108333336e-08 0.028421718307395132 3275.901719270556
decision_type=2 2 2
left_child=1 -1 -3
right_child=-2 2 -4
leaf_value=-0.37099572961198668 0.27456612443873651 -0.20226435991496414 0.20826532934736383
leaf_weight=348 354 549 373
leaf_count=333 114 354 142
internal_value=-0.0402097 -0.128206 -0.0360651
internal_weight=1624 1270 922
internal_count=943 829 496
is_linear=0
shrinkage=0.03


Tree=71
num_leaves=4
num_cat=0
split_feature=58 47 69
split_gain=47232.8 28959.7 4902.82
threshold=6.1106848211805575e-08 292.30106166666673 -1.2502397051394618
decision_type=2 2 2
left_child=1 -1 -3
right_child=-2 2 -4
leaf_value=0.0234741168790784 0.23392188361128408 -0.35459795471942057 -0.18706050669593599
leaf_weight=558 421 322 323
leaf_count=231 148 289 275
internal_value=-0.0390051 -0.134728 -0.271398
internal_weight=1624 1203 645
internal_count=943 795 564
is_linear=0
shrinkage=0.03


Tree=72
num_leaves=4
num_cat=0
split_feature=58 75 99
split_gain=44648.9 28990.4 38560.2
threshold=6.540891108333336e-08 0.028421718307395132 3275.901719270556
decision_type=2 2 2
left_child=1 -1 -3
right_child=-2 2 -4
leaf_value=-0.35361808700111286 0.2593758543030622 -0.19237905325771534 0.20221338176280099
leaf_weight=348 354 549 373
leaf_count=333 114 354 142
internal_value=-0.037842 -0.120932 -0.0326267
internal_weight=1624 1270 922
internal_count=943 829 496
is_linear=0
shrinkage=0.03


Tree=73
num_leaves=5
num_cat=0
split_feature=58 67 47 18
split_gain=42020.5 27389.4 16920.1 4188.06
threshold=6.540891108333336e-08 1.0208107972222227 291.0424450000001 4.5417702147635807e-06
decision_type=2 2 2 2
left_child=1 -1 -3 -4
right_child=-2 2 3 -5
leaf_value=0.11927621657122638 0.25162740176991572 -0.044324320928723203 -0.21722003149772845 -0.38400815587664516
leaf_weight=326 354 381 275 288
leaf_count=203 114 150 200 276
internal_value=-0.0367082 -0.117316 -0.199128 -0.303413
internal_weight=1624 1270 944 563
internal_count=943 829 626 476
is_linear=0
shrinkage=0.03


Tree=74
num_leaves=4
num_cat=0
split_feature=99 18 11
split_gain=41276.9 55935.8 22365.3
threshold=2006.5611947944444 3.2606838923442863e-06 -0.63803908666666653
decision_type=2 2 2
left_child=-1 -2 -3
right_child=1 2 -4
leaf_value=-0.30956967599719409 0.32453432007118382 -0.21600379973963688 0.10989957859149561
leaf_weight=378 429 521 296
leaf_count=273 132 392 146
internal_value=-0.0356146 0.0477316 -0.0978887
internal_weight=1624 1246 817
internal_count=943 670 538
is_linear=0
shrinkage=0.03


Tree=75
num_leaves=3
num_cat=0
split_feature=10 35
split_gain=65396.7 38104.7
threshold=0.8860368694444446 292.31100055555561
decision_type=2 2
left_child=-1 -2
right_child=1 -3
leaf_value=0.22475095015818766 -0.40751006050232708 -0.013870899779879438
leaf_weight=709 343 620
leaf_count=349 208 386
internal_value=0.0063266 -0.154539
internal_weight=1672 963
internal_count=943 594
is_linear=0
shrinkage=0.03


Tree=76
num_leaves=4
num_cat=0
split_feature=67 35 8
split_gain=70025.7 39150.4 36092.6
threshold=0.99367433500000013 292.31100055555561 287.97593722222229
decision_type=2 2 2
left_child=-1 -2 -3
right_child=1 2 -4
leaf_value=0.28602894220215558 -0.37424995386437726 0.18912183655039663 -0.22867555012680371
leaf_weight=542 383 406 341
leaf_count=266 227 157 293
internal_value=0.0061299 -0.128284 -0.00161553
internal_weight=1672 1130 747
internal_count=943 677 450
is_linear=0
shrinkage=0.03


Tree=77
num_leaves=3
num_cat=0
split_feature=10 76
split_gain=58623.7 25972.8
threshold=0.8860368694444446 11.500000000000002
decision_type=2 2
left_child=-1 -2
right_child=1 -3
leaf_value=0.21274758061363946 -0.34392881329139857 -0.023540510807532975
leaf_weight=709 368 595
leaf_count=349 299 295
internal_value=0.00594177 -0.146365
internal_weight=1672 963
internal_count=943 594
is_linear=0
shrinkage=0.03


Tree=78
num_leaves=4
num_cat=0
split_feature=67 34 40
split_gain=63268.5 29603.3 9697.02
threshold=0.99367433500000013 5.6729466166666677e-08 6.4371302500000013e-08
decision_type=2 2 2
left_child=-1 -2 -3
right_child=1 2 -4
leaf_value=0.27181101918515249 0.072952366234109473 -0.12552135808467862 -0.350234129273088
leaf_weight=542 432 336 362
leaf_count=266 237 171 269
internal_value=0.00575774 -0.122005 -0.242628
internal_weight=1672 1130 698
internal_count=943 677 440
is_linear=0
shrinkage=0.03


Tree=79
num_leaves=4
num_cat=0
split_feature=67 35 88
split_gain=59541.3 34677.8 33016.1
threshold=0.99367433500000013 292.31100055555561 0.6830127018922193
decision_type=2 2 2
left_child=-1 -2 -3
right_child=1 2 -4
leaf_value=0.26367919308723747 -0.34985111839362021 -0.20390945311436434 0.19433818895065366
leaf_weight=542 383 363 384
leaf_count=266 227 324 126
internal_value=0.00558068 -0.118361 0.000731298
internal_weight=1672 1130 747
internal_count=943 677 450
is_linear=0
shrinkage=0.03


Tree=80
num_leaves=4
num_cat=0
split_feature=99 18 11
split_gain=60639.7 79560.6 12390.9
threshold=1958.7260249322223 3.6368588406395531e-06 -0.80383710471111092
decision_type=2 2 2
left_child=-1 -2 -3
right_child=1 2 -4
leaf_value=-0.32890703351082651 0.36794883879850493 -0.20759382471897864 0.040768064435504583
leaf_weight=391 555 440 305
leaf_count=280 168 332 167
internal_value=-0.0020353 0.0965088 -0.105978
internal_weight=1691 1300 745
internal_count=947 667 499
is_linear=0
shrinkage=0.03


Tree=81
num_leaves=4
num_cat=0
split_feature=99 18 14
split_gain=57068.2 74871.2 21337.4
threshold=1958.7260249322223 3.6368588406395531e-06 98828.510833333348
decision_type=2 2 2
left_child=-1 -2 -3
right_child=1 2 -4
leaf_value=-0.31907753168055963 0.35694012657330043 -0.24601983349218909 0.076484778217803265
leaf_weight=391 555 414 331
leaf_count=280 168 339 160
internal_value=-0.00197684 0.0936205 -0.102806
internal_weight=1691 1300 745
internal_count=947 667 499
is_linear=0
shrinkage=0.03


Tree=82
num_leaves=4
num_cat=0
split_feature=99 75 66
split_gain=53707 60297.4 20449.4
threshold=1958.7260249322223 0.058134590140939559 -0.68658367499999995
decision_type=2 2 2
left_child=-1 2 -2
right_child=1 -3 -4
leaf_value=-0.30954178932878618 -0.22538511099747971 0.31985270009129746 0.097136885651818411
leaf_weight=391 423 575 302
leaf_count=280 315 194 158
internal_value=-0.00192024 0.0908184 -0.0910529
internal_weight=1691 1300 725
internal_count=947 667 473
is_linear=0
shrinkage=0.03


Tree=83
num_leaves=4
num_cat=0
split_feature=99 18 33
split_gain=51591.4 87450.3 23058.8
threshold=3433.420338086667 5.3441740343117175e-06 3.6948821700000005e-07
decision_type=2 2 2
left_child=2 -2 -1
right_child=1 -3 -4
leaf_value=-0.0015520279605843626 0.48927390099373819 -0.10722355335597115 -0.32571553094263023
leaf_weight=364 392 504 431
leaf_count=250 119 357 221
internal_value=-0.00186497 0.154076 -0.177632
internal_weight=1691 896 795
internal_count=947 476 471
is_linear=0
shrinkage=0.03


Tree=84
num_leaves=4
num_cat=0
split_feature=99 18 11
split_gain=48635.2 67037.9 11017.5
threshold=1958.7260249322223 3.6368588406395531e-06 -0.80383710471111092
decision_type=2 2 2
left_child=-1 -2 -3
right_child=1 2 -4
leaf_value=-0.29454597017496448 0.3356085054106468 -0.19524133076718328 0.038944717947071564
leaf_weight=391 555 440 305
leaf_count=280 168 332 167
internal_value=-0.00180836 0.0864415 -0.0994206
internal_weight=1691 1300 745
internal_count=947 667 499
is_linear=0
shrinkage=0.03


Tree=85
num_leaves=5
num_cat=0
split_feature=100 18 32 7
split_gain=44378.3 112051 11861.2 7628.89
threshold=2895.6386929722225 4.2728492745093952e-06 2.8610063833333344e-07 294.79147546666667
decision_type=2 2 2 2
left_child=2 -2 -1 -3
right_child=1 3 -4 -5
leaf_value=-0.070114440768270447 0.52260940705808079 -0.02740683980297929 -0.32637014775654249 -0.2386607536322497
leaf_weight=324 380 314 328 302
leaf_count=234 113 161 172 269
internal_value=-0.00736958 0.118501 -0.19955 -0.131377
internal_weight=1648 996 652 616
internal_count=949 543 406 430
is_linear=0
shrinkage=0.03


Tree=86
num_leaves=5
num_cat=0
split_feature=99 18 75 25
split_gain=41765.9 105457 10809.1 10799.5
threshold=2895.6386929722225 4.2728492745093952e-06 0.10241602371975116 5.7689769500000007e-08
decision_type=2 2 2 2
left_child=2 -2 -1 -3
right_child=1 3 -4 -5
leaf_value=-0.31767247405059601 0.50699275961709678 -0.24706251141346033 -0.072973070698476084 0.0039755149601679767
leaf_weight=320 380 322 332 294
leaf_count=224 113 283 182 147
internal_value=-0.00715395 0.114955 -0.193593 -0.127457
internal_weight=1648 996 652 616
internal_count=949 543 406 430
is_linear=0
shrinkage=0.03


Tree=87
num_leaves=5
num_cat=0
split_feature=99 18 86 52
split_gain=39328.9 102772 16547.9 7729.75
threshold=2959.5067747848539 4.3922254264261768e-06 0.60355339059327384 5.4580385500000012e-08
decision_type=2 2 2 2
left_child=2 -2 -1 -3
right_child=1 3 -4 -5
leaf_value=-0.031051455809329657 0.50259585948337782 -0.22850475572780299 -0.32773061592180375 -0.011361926885919834
leaf_weight=333 376 324 344 271
leaf_count=198 115 285 218 133
internal_value=-0.00694279 0.115337 -0.182259 -0.129957
internal_weight=1648 971 677 595
internal_count=949 533 416 418
is_linear=0
shrinkage=0.03


Tree=88
num_leaves=5
num_cat=0
split_feature=99 18 32 25
split_gain=37054.7 93750.5 10557.8 9670.86
threshold=2895.6386929722225 4.2728492745093952e-06 2.8610063833333344e-07 5.7689769500000007e-08
decision_type=2 2 2 2
left_child=2 -2 -1 -3
right_child=1 3 -4 -5
leaf_value=-0.060259811371942543 0.47791541450770464 -0.23346617067834416 -0.30199087491346599 0.0040830786609407609
leaf_weight=324 380 322 328 294
leaf_count=234 113 283 172 147
internal_value=-0.00673876 0.108276 -0.18235 -0.120283
internal_weight=1648 996 652 616
internal_count=949 543 406 430
is_linear=0
shrinkage=0.03


Tree=89
num_leaves=3
num_cat=0
split_feature=72 99
split_gain=35645.8 19961
threshold=66.775157401385783 4384.0521396638896
decision_type=2 2
left_child=-1 -2
right_child=1 -3
leaf_value=0.21068411149896937 -0.22879881366615287 0.0195679416866038
leaf_weight=480 543 625
leaf_count=186 378 385
internal_value=-0.0065397 -0.096004
internal_weight=1648 1168
internal_count=949 763
is_linear=0
shrinkage=0.03


Tree=90
num_leaves=4
num_cat=0
split_feature=99 0 75
split_gain=32798.5 54223 17768.7
threshold=2119.9662082466134 4.6405739666666672e-07 0.024357961685924214
decision_type=2 2 2
left_child=-1 2 -2
right_child=1 -3 -4
leaf_value=-0.2634360696221586 -0.26490904683489436 0.32896168446332996 0.020023323346912179
leaf_weight=420 333 400 478
leaf_count=294 306 115 226
internal_value=-0.0354831 0.0437668 -0.0971888
internal_weight=1631 1211 811
internal_count=941 647 532
is_linear=0
shrinkage=0.03


Tree=91
num_leaves=4
num_cat=0
split_feature=6 100 75
split_gain=32785.5 25187 31904.2
threshold=26.042427888888895 3350.7825594722226 0.026361363367528388
decision_type=2 2 2
left_child=-1 -2 -3
right_child=1 2 -4
leaf_value=0.22749089354460461 -0.276419367129422 -0.2251728877233736 0.15506890039739821
leaf_weight=339 476 337 479
leaf_count=129 341 298 173
internal_value=-0.0344227 -0.103363 -0.00203721
internal_weight=1631 1292 816
internal_count=941 812 471
is_linear=0
shrinkage=0.03


Tree=92
num_leaves=4
num_cat=0
split_feature=99 75 75
split_gain=30960 50214.8 15373.8
threshold=2119.9662082466134 0.072395832793351753 0.024357961685924214
decision_type=2 2 2
left_child=-1 2 -2
right_child=1 -3 -4
leaf_value=-0.25486566204942257 -0.24968858333856933 0.31252981443405148 0.016512672891591324
leaf_weight=420 334 411 466
leaf_count=294 307 135 205
internal_value=-0.0333924 0.0436022 -0.0948295
internal_weight=1631 1211 800
internal_count=941 647 512
is_linear=0
shrinkage=0.03


Tree=93
num_leaves=4
num_cat=0
split_feature=6 100 6
split_gain=30908.7 23683 24166
threshold=26.042427888888895 3350.7825594722226 138.35828000000001
decision_type=2 2 2
left_child=-1 -2 -3
right_child=1 2 -4
leaf_value=0.22190969094305837 -0.26714411385833275 0.1521637486403227 -0.17436517504512566
leaf_weight=339 476 433 383
leaf_count=129 341 151 320
internal_value=-0.0323947 -0.0993348 -0.00108044
internal_weight=1631 1292 816
internal_count=941 812 471
is_linear=0
shrinkage=0.03


Tree=94
num_leaves=4
num_cat=0
split_feature=99 4 75
split_gain=29225.6 48986.1 14286.8
threshold=2119.9662082466134 4.0355608166666672e-07 0.024357961685924214
decision_type=2 2 2
left_child=-1 2 -2
right_child=1 -3 -4
leaf_value=-0.24660560949861315 -0.23784400664436978 0.32326472548421553 0.015837499945905633
leaf_weight=420 333 383 495
leaf_count=294 306 110 231
internal_value=-0.0314239 0.0433813 -0.0863779
internal_weight=1631 1211 828
internal_count=941 647 537
is_linear=0
shrinkage=0.03


Tree=95
num_leaves=4
num_cat=0
split_feature=99 75 18
split_gain=32811.7 45642.8 23183.9
threshold=3483.2400585600012 0.02488364146465295 2.1458985633009178e-06
decision_type=2 2 2
left_child=2 -2 -1
right_child=1 -3 -4
leaf_value=-0.0085891844253260484 -0.14961791200474869 0.29907768552250885 -0.33314533338551727
leaf_weight=442 346 493 358
leaf_count=220 295 175 268
internal_value=-0.0168963 0.114047 -0.154236
internal_weight=1639 839 800
internal_count=958 470 488
is_linear=0
shrinkage=0.03


Tree=96
num_leaves=4
num_cat=0
split_feature=100 23 18
split_gain=30879 40220.8 21818.9
threshold=3483.2400585600012 294.04518611111115 2.1458985633009178e-06
decision_type=2 2 2
left_child=2 -2 -1
right_child=1 -3 -4
leaf_value=-0.0083323824949974139 0.29035423204287281 -0.12858601145910031 -0.32319267456700845
leaf_weight=442 479 360 358
leaf_count=220 185 285 268
internal_value=-0.0163955 0.110632 -0.14963
internal_weight=1639 839 800
internal_count=958 470 488
is_linear=0
shrinkage=0.03


Tree=97
num_leaves=4
num_cat=0
split_feature=60 42 60
split_gain=30120.3 16025.4 10094.6
threshold=5.7488772215277788e-07 3.3550498095637762 4.1319379688888894e-07
decision_type=2 2 2
left_child=1 2 -1
right_child=-2 -3 -4
leaf_value=-0.09967198273051868 0.15218424768449351 0.055872261867258285 -0.33172246524530891
leaf_weight=411 604 336 288
leaf_count=327 247 213 171
internal_value=-0.0159091 -0.114126 -0.195851
internal_weight=1639 1035 699
internal_count=958 711 498
is_linear=0
shrinkage=0.03


Tree=98
num_leaves=4
num_cat=0
split_feature=100 75 18
split_gain=28831.5 41273.2 20301.2
threshold=3483.2400585600012 0.02488364146465295 2.1458985633009178e-06
decision_type=2 2 2
left_child=2 -2 -1
right_child=1 -3 -4
leaf_value=-0.0078821010618830741 -0.14341395425710748 0.2832592134545317 -0.31159736752385719
leaf_weight=442 346 493 358
leaf_count=220 295 175 268
internal_value=-0.0154371 0.107306 -0.14418
internal_weight=1639 839 800
internal_count=958 470 488
is_linear=0
shrinkage=0.03


Tree=99
num_leaves=4
num_cat=0
split_feature=59 99 18
split_gain=28570.6 12691.7 13787.8
threshold=4.4625707162500008e-07 4840.1328964833347 2.8213667547711978e-06
decision_type=2 2 2
left_child=1 2 -1
right_child=-2 -3 -4
leaf_value=-0.055767304165195312 0.19071789626137112 0.022561117851699064 -0.32629984514569921
leaf_weight=387 442 508 302
leaf_count=231 169 313 245
internal_value=-0.0149798 -0.0911162 -0.174863
internal_weight=1639 1197 689
internal_count=958 789 476
is_linear=0
shrinkage=0.03


Tree=100
num_leaves=4
num_cat=0
split_feature=59 42 42
split_gain=38871.7 11491.7 5927.72
threshold=4.4625707162500008e-07 3.2327535793178219 1.8735793698960512
decision_type=2 2 2
left_child=1 2 -1
right_child=-2 -3 -4
leaf_value=-0.059567094124691217 0.23872116420017658 0.053185138032125788 -0.22504655642054217
leaf_weight=377 487 390 407
leaf_count=260 184 240 263
internal_value=0.0137832 -0.0796731 -0.145796
internal_weight=1661 1174 784
internal_count=947 763 523
is_linear=0
shrinkage=0.03


Tree=101
num_leaves=4
num_cat=0
split_feature=61 72 61
split_gain=39610.3 67833.2 22631.9
threshold=0.70683201290139575 69.968706960812156 0.70862919586683537
decision_type=2 2 2
left_child=-1 -2 -3
right_child=1 2 -4
leaf_value=-0.20478037825339299 0.46448159432307079 0.14134800642031303 -0.17895355208822997
leaf_weight=515 342 351 453
leaf_count=281 126 186 354
internal_value=0.0133691 0.111582 -0.0390617
internal_weight=1661 1146 804
internal_count=947 666 540
is_linear=0
shrinkage=0.03


Tree=102
num_leaves=4
num_cat=0
split_feature=61 59 61
split_gain=37282.6 62509.2 19186.7
threshold=0.70698014324272396 4.299930875694445e-07 0.70870540463754306
decision_type=2 2 2
left_child=-1 2 -2
right_child=1 -3 -4
leaf_value=-0.18075669409180267 0.13894660771068543 0.45361064297774811 -0.16878286871897516
leaf_weight=580 317 339 425
leaf_count=310 170 126 341
internal_value=0.0129732 0.117065 -0.0372379
internal_weight=1661 1081 742
internal_count=947 637 511
is_linear=0
shrinkage=0.03


Tree=103
num_leaves=4
num_cat=0
split_feature=61 72 61
split_gain=35266 62585.3 20370.6
threshold=0.70683201290139575 69.968706960812156 0.70862919586683537
decision_type=2 2 2
left_child=-1 -2 -3
right_child=1 2 -4
leaf_value=-0.19324785765545352 0.44423756796069536 0.13172873187065123 -0.17214942655092713
leaf_weight=515 342 351 453
leaf_count=281 126 186 354
internal_value=0.0125898 0.105262 -0.0394321
internal_weight=1661 1146 804
internal_count=947 666 540
is_linear=0
shrinkage=0.03


Tree=104
num_leaves=5
num_cat=0
split_feature=59 67 59 31
split_gain=33750.7 14181.9 9348.32 3123.86
threshold=4.4625707162500008e-07 1.0742009177777778 3.1556208166666674e-07 4.4334172000000007e-08
decision_type=2 2 2 2
left_child=1 -1 3 -3
right_child=-2 2 -4 -5
leaf_value=0.096173335207594052 0.22181746213682599 0.012263489265662397 -0.27017984382748023 -0.13073500688679707
leaf_weight=317 487 258 308 291
leaf_count=197 184 183 158 225
internal_value=0.012217 -0.0748635 -0.138239 -0.0636015
internal_weight=1661 1174 857 549
internal_count=947 763 566 408
is_linear=0
shrinkage=0.03


Tree=105
num_leaves=4
num_cat=0
split_feature=99 18 55
split_gain=31272.4 63912.1 10982.7
threshold=3023.5111727288891 4.9217828719457524e-06 5.2684015497740203e-08
decision_type=2 2 2
left_child=2 -2 -1
right_child=1 -3 -4
leaf_value=-0.038332436782496794 0.41825172625351725 -0.089372490850394601 -0.27941087490524957
leaf_weight=356 370 558 326
leaf_count=251 115 399 173
internal_value=1.90506e-05 0.113321 -0.153995
internal_weight=1610 928 682
internal_count=938 514 424
is_linear=0
shrinkage=0.03


Tree=106
num_leaves=4
num_cat=0
split_feature=99 18 55
split_gain=29432.7 60149.4 10336.2
threshold=3023.5111727288891 4.9217828719457524e-06 5.2684015497740203e-08
decision_type=2 2 2
left_child=2 -2 -1
right_child=1 -3 -4
leaf_value=-0.037187290634308659 0.40575483683702279 -0.086698505139782334 -0.27106694126060904
leaf_weight=356 370 558 326
leaf_count=251 115 399 173
internal_value=1.62759e-05 0.109936 -0.149399
internal_weight=1610 928 682
internal_count=938 514 424
is_linear=0
shrinkage=0.03


Tree=107
num_leaves=4
num_cat=0
split_feature=74 83 59
split_gain=29118.4 20499.3 12561.6
threshold=16.523181908755099 1.5000000000000002 3.090137284958334e-07
decision_type=2 2 2
left_child=-1 -2 -3
right_child=1 2 -4
leaf_value=0.18735949510516894 0.071455040118451843 -0.075455577302316904 -0.33929131050598926
leaf_weight=509 441 369 291
leaf_count=251 243 279 165
internal_value=1.3576e-05 -0.086694 -0.192357
internal_weight=1610 1101 660
internal_count=938 687 444
is_linear=0
shrinkage=0.03


Tree=108
num_leaves=4
num_cat=0
split_feature=99 18 12
split_gain=28209.6 55639.2 8970.51
threshold=3023.5111727288891 4.9217828719457524e-06 53.442982930868531
decision_type=2 2 2
left_child=2 -2 -1
right_child=1 -3 -4
leaf_value=-0.040765567806106698 0.39213121327384803 -0.081500081238973551 -0.25863298884678892
leaf_weight=353 370 558 329
leaf_count=230 115 399 194
internal_value=7.97622e-06 0.10762 -0.146269
internal_weight=1610 928 682
internal_count=938 514 424
is_linear=0
shrinkage=0.03


Tree=109
num_leaves=4
num_cat=0
split_feature=74 83 59
split_gain=27281.6 19029.1 11654.5
threshold=16.523181908755099 1.5000000000000002 3.090137284958334e-07
decision_type=2 2 2
left_child=-1 -2 -3
right_child=1 2 -4
leaf_value=0.18134717196547201 0.068448596838167161 -0.073115521455070512 -0.32725815246961054
leaf_weight=509 441 369 291
leaf_count=251 243 279 165
internal_value=5.53838e-06 -0.0839218 -0.185725
internal_weight=1610 1101 660
internal_count=938 687 444
is_linear=0
shrinkage=0.03


Tree=110
num_leaves=4
num_cat=0
split_feature=58 69 56
split_gain=35211.1 15527.4 11432
threshold=5.9527757625000003e-08 -0.12378715683100543 2.5786888725000009e-07
decision_type=2 2 2
left_child=1 2 -1
right_child=-2 -3 -4
leaf_value=-0.014633043904840867 0.24616001224517822 0.10656570673957357 -0.23880725549814519
leaf_weight=383 456 337 440
leaf_count=266 171 220 269
internal_value=0.023237 -0.0645608 -0.134754
internal_weight=1616 1160 823
internal_count=926 755 535
is_linear=0
shrinkage=0.03


Tree=111
num_leaves=4
num_cat=0
split_feature=59 99 18
split_gain=33349.4 19484.7 6523.82
threshold=4.4625707162500008e-07 5571.1953282500008 2.7406638408846763e-06
decision_type=2 2 2
left_child=1 2 -1
right_child=-2 -3 -4
leaf_value=-0.064688934565207218 0.24082172846978131 0.10251907445463462 -0.24203149659338391
leaf_weight=376 452 414 374
leaf_count=220 182 264 260
internal_value=0.0225418 -0.062382 -0.15349
internal_weight=1616 1164 750
internal_count=926 744 480
is_linear=0
shrinkage=0.03


Tree=112
num_leaves=4
num_cat=0
split_feature=6 67 33
split_gain=32381.2 29289 7028.37
threshold=29.597413944444451 1.0742009177777778 3.596222216666667e-07
decision_type=2 2 2
left_child=-1 -2 -3
right_child=1 2 -4
leaf_value=0.27165594750067285 0.16203203365113469 -0.059150963418789324 -0.23143397953065084
leaf_weight=361 398 412 445
leaf_count=145 218 277 286
internal_value=0.0218658 -0.0501889 -0.14891
internal_weight=1616 1255 857
internal_count=926 781 563
is_linear=0
shrinkage=0.03


Tree=113
num_leaves=4
num_cat=0
split_feature=4 41 99
split_gain=31156 13579.5 5445.04
threshold=4.6804493833333343e-07 290.1921411111112 5571.1953282500008
decision_type=2 2 2
left_child=1 -1 -3
right_child=-2 2 -4
leaf_value=0.079326937051301588 0.22932287199690532 -0.19346647413762544 -0.022398520579352179
leaf_weight=399 461 504 252
leaf_count=189 161 393 183
internal_value=0.0212129 -0.0620016 -0.13666
internal_weight=1616 1155 756
internal_count=926 765 576
is_linear=0
shrinkage=0.03


Tree=114
num_leaves=4
num_cat=0
split_feature=58 61 61
split_gain=31182.6 15352.7 12584.5
threshold=5.9527757625000003e-08 0.71040599225899681 0.70738387354331511
decision_type=2 2 2
left_child=1 2 -1
right_child=-2 -3 -4
leaf_value=-0.10224836361679526 0.23036428903751685 -0.24421140578610376 0.12837236145285852
leaf_weight=464 456 305 391
leaf_count=278 171 260 217
internal_value=0.0205783 -0.0620415 0.00320436
internal_weight=1616 1160 855
internal_count=926 755 495
is_linear=0
shrinkage=0.03


Tree=115
num_leaves=4
num_cat=0
split_feature=100 53 33
split_gain=19182.2 28974.8 17723.6
threshold=3483.2400585600012 3.4070555058888895e-07 3.6948821700000005e-07
decision_type=2 2 2
left_child=2 -2 -1
right_child=1 -3 -4
leaf_value=0.017870085672009112 -0.07788739307854313 0.27707123956330865 -0.26432420817960317
leaf_weight=373 492 355 430
leaf_count=256 333 133 220
internal_value=-0.0284469 0.0710589 -0.133398
internal_weight=1650 847 803
internal_count=942 466 476
is_linear=0
shrinkage=0.03


Tree=116
num_leaves=4
num_cat=0
split_feature=67 18 99
split_gain=24581.9 10419.5 13908.6
threshold=1.0927457922222223 2.5955109988839295e-06 4564.6152537388907
decision_type=2 2 2
left_child=-1 -2 -3
right_child=1 2 -4
leaf_value=0.13501098419374491 0.028431860847269706 -0.3223022257414222 -0.06181679300385888
leaf_weight=554 338 318 440
leaf_count=284 149 231 278
internal_value=-0.027594 -0.1099 -0.171577
internal_weight=1650 1096 758
internal_count=942 658 509
is_linear=0
shrinkage=0.03


Tree=117
num_leaves=4
num_cat=0
split_feature=67 86 23
split_gain=23134.2 7588.33 11153
threshold=1.0927457922222223 0.60355339059327384 294.26166000000006
decision_type=2 2 2
left_child=-1 2 -2
right_child=1 -3 -4
leaf_value=0.13097159236079395 0.067320307401322735 -0.21303218476416899 -0.17041935965635086
leaf_weight=554 365 388 343
leaf_count=284 134 235 289
internal_value=-0.0267714 -0.106617 -0.0479092
internal_weight=1650 1096 708
internal_count=942 658 423
is_linear=0
shrinkage=0.03


Tree=118
num_leaves=4
num_cat=0
split_feature=67 18 99
split_gain=21771.5 9758.82 12963.4
threshold=1.0927457922222223 2.5955109988839295e-06 4564.6152537388907
decision_type=2 2 2
left_child=-1 -2 -3
right_child=1 2 -4
leaf_value=0.12705305652858892 0.030429960500245944 -0.30863474422995818 -0.057165642008438516
leaf_weight=554 338 318 440
leaf_count=284 149 231 278
internal_value=-0.0259724 -0.103432 -0.163124
internal_weight=1650 1096 758
internal_count=942 658 509
is_linear=0
shrinkage=0.03


Tree=119
num_leaves=4
num_cat=0
split_feature=67 35 8
split_gain=20489.2 11276.6 5274.47
threshold=1.0927457922222223 292.31100055555561 287.97593722222229
decision_type=2 2 2
left_child=-1 -2 -3
right_child=1 2 -4
leaf_value=0.12325175398627075 -0.23210907436487405 0.049666970760077443 -0.11284933446442827
leaf_weight=554 380 365 351
leaf_count=284 215 149 294
internal_value=-0.0251981 -0.100343 -0.030009
internal_weight=1650 1096 716
internal_count=942 658 443
is_linear=0
shrinkage=0.03


Tree=120
num_leaves=4
num_cat=0
split_feature=100 16 32
split_gain=32640.9 54673.6 22165.9
threshold=3433.420338086667 82.474459333333343 2.7774255666666671e-07
decision_type=2 2 2
left_child=2 -2 -1
right_child=1 -3 -4
leaf_value=0.038245388628152639 0.41232852690741129 -0.059345424863307371 -0.27688687422145869
leaf_weight=398 385 516 403
leaf_count=269 118 375 202
internal_value=0.0187185 0.142503 -0.120469
internal_weight=1702 901 801
internal_count=964 493 471
is_linear=0
shrinkage=0.03


Tree=121
num_leaves=4
num_cat=0
split_feature=99 75 32
split_gain=30718.6 51849.1 20861
threshold=3433.420338086667 0.044518670717399372 2.7774255666666671e-07
decision_type=2 2 2
left_child=2 -2 -1
right_child=1 -3 -4
leaf_value=0.037102335415062526 -0.054790282329091611 0.40581845025356017 -0.26861107177710064
leaf_weight=398 524 377 403
leaf_count=269 377 116 202
internal_value=0.0181592 0.138244 -0.116867
internal_weight=1702 901 801
internal_count=964 493 471
is_linear=0
shrinkage=0.03


Tree=122
num_leaves=4
num_cat=0
split_feature=99 53 33
split_gain=28909.5 50559.4 19424.2
threshold=3433.420338086667 3.5210942750000009e-07 3.9257984500000006e-07
decision_type=2 2 2
left_child=2 -2 -1
right_child=1 -3 -4
leaf_value=0.034829440240779615 -0.05007959774186168 0.40756399120228493 -0.26016227970668376
leaf_weight=399 539 362 402
leaf_count=270 353 140 201
internal_value=0.0176168 0.134112 -0.113372
internal_weight=1702 901 801
internal_count=964 493 471
is_linear=0
shrinkage=0.03


Tree=123
num_leaves=4
num_cat=0
split_feature=100 67 32
split_gain=27207.2 48408.6 18486.1
threshold=3433.420338086667 1.5292008203401364 2.7774255666666671e-07
decision_type=2 2 2
left_child=2 -2 -1
right_child=1 -3 -4
leaf_value=0.034952484469427184 0.36433579260569349 -0.075735711620488089 -0.25282857428375072
leaf_weight=398 421 480 403
leaf_count=269 202 291 202
internal_value=0.017091 0.130105 -0.109982
internal_weight=1702 901 801
internal_count=964 493 471
is_linear=0
shrinkage=0.03


Tree=124
num_leaves=4
num_cat=0
split_feature=99 75 32
split_gain=25604.5 48319.1 17397.9
threshold=3433.420338086667 0.044518670717399372 2.7774255666666671e-07
decision_type=2 2 2
left_child=2 -2 -1
right_child=1 -3 -4
leaf_value=0.033907848722901715 -0.060112794506532813 0.38452690945276335 -0.24527184374731759
leaf_weight=398 524 377 403
leaf_count=269 377 116 202
internal_value=0.0165793 0.126215 -0.106693
internal_weight=1702 901 801
internal_count=964 493 471
is_linear=0
shrinkage=0.03


Tree=125
num_leaves=4
num_cat=0
split_feature=0 75 100
split_gain=27543.3 10659.9 8321.07
threshold=5.3267495000000008e-07 0.084496388326513586 5955.2272639888906
decision_type=2 2 2
left_child=1 2 -1
right_child=-2 -3 -4
leaf_value=-0.20903772892575598 0.22221324788487476 0.10389593390185069 -0.020118708894426126
leaf_weight=377 470 298 473
leaf_count=281 161 169 311
internal_value=0.0291314 -0.0500655 -0.104183
internal_weight=1618 1148 850
internal_count=922 761 592
is_linear=0
shrinkage=0.03


Tree=126
num_leaves=4
num_cat=0
split_feature=61 54 72
split_gain=30758.5 49555.8 16659.4
threshold=0.70733447205773325 5.1341923084444464e-07 159.85574097710537
decision_type=2 2 2
left_child=-1 2 -2
right_child=1 -3 -4
leaf_value=-0.13115020804444552 0.13438175823868373 0.42756965456374085 -0.17345106623846673
leaf_weight=650 310 338 320
leaf_count=344 166 134 278
internal_value=0.0282593 0.135385 -0.0219471
internal_weight=1618 968 630
internal_count=922 578 444
is_linear=0
shrinkage=0.03


Tree=127
num_leaves=4
num_cat=0
split_feature=61 4 37
split_gain=28946.8 48012.4 4152.95
threshold=0.70733447205773325 3.229503883333334e-07 5.2512655000000008e-08
decision_type=2 2 2
left_child=-1 2 -2
right_child=1 -3 -4
leaf_value=-0.12722475939350961 -0.10836528875142939 0.39979380372444145 0.049529631294535068
leaf_weight=650 319 369 280
leaf_count=344 244 141 193
internal_value=0.0274178 0.131341 -0.0345437
internal_weight=1618 968 599
internal_count=922 578 437
is_linear=0
shrinkage=0.03


Tree=128
num_leaves=4
num_cat=0
split_feature=64 67 56
split_gain=25318.2 12388.9 8042.15
threshold=3.7850125110050363e-14 1.1083441967111114 2.1448795805555561e-07
decision_type=2 2 2
left_child=1 -1 -3
right_child=-2 2 -4
leaf_value=0.097619229261529064 0.23052739286597396 0.020369846987983452 -0.17618237061389791
leaf_weight=386 408 286 538
leaf_count=224 126 208 364
internal_value=0.0266004 -0.0423249 -0.107994
internal_weight=1618 1210 824
internal_count=922 796 572
is_linear=0
shrinkage=0.03


Tree=129
num_leaves=4
num_cat=0
split_feature=99 0 48
split_gain=27163.2 53842.7 9155.64
threshold=2119.9662082466134 4.6405739666666672e-07 1.8903306299914335
decision_type=2 2 2
left_child=-1 2 -2
right_child=1 -3 -4
leaf_value=-0.192547338698944 0.082854072382612207 0.3790532789620325 -0.12194877104519344
leaf_weight=388 317 402 511
leaf_count=280 182 111 349
internal_value=0.025808 0.0948748 -0.0434777
internal_weight=1618 1230 828
internal_count=922 642 531
is_linear=0
shrinkage=0.03


Tree=130
num_leaves=4
num_cat=0
split_feature=6 100 53
split_gain=28715.1 13348.5 7496.47
threshold=29.597413944444451 4384.0521396638896 3.3914168750000009e-07
decision_type=2 2 2
left_child=-1 2 -2
right_child=1 -3 -4
leaf_value=0.22091660373064936 -0.075744712923017946 0.012740435754606268 -0.28640994444221207
leaf_weight=366 307 668 304
leaf_count=144 244 392 157
internal_value=-0.0128174 -0.0799186 -0.181078
internal_weight=1645 1279 611
internal_count=937 793 401
is_linear=0
shrinkage=0.03


Tree=131
num_leaves=4
num_cat=0
split_feature=72 61 9
split_gain=26013.1 8774.81 6762.85
threshold=53.90938301673301 0.71066971005480928 3.3734537933348703
decision_type=2 2 2
left_child=-1 2 -2
right_child=1 -3 -4
leaf_value=0.19448922275444186 -0.10104071420685989 -0.2212823732229198 0.063554467421219521
leaf_weight=409 562 302 372
leaf_count=151 334 257 195
internal_value=-0.0124356 -0.0810974 -0.0354397
internal_weight=1645 1236 934
internal_count=937 786 529
is_linear=0
shrinkage=0.03


Tree=132
num_leaves=4
num_cat=0
split_feature=18 33 29
split_gain=26706.2 7246.07 8241.28
threshold=1.9698173972549312e-06 4.4636738000000007e-07 296.05799306666671
decision_type=2 2 2
left_child=-1 2 -2
right_child=1 -3 -4
leaf_value=0.18361762890655228 0.081045611018123562 -0.17024623304696215 -0.12897427984321388
leaf_weight=453 344 522 326
leaf_count=210 182 300 245
internal_value=-0.0120635 -0.0866039 -0.021136
internal_weight=1645 1192 670
internal_count=937 727 427
is_linear=0
shrinkage=0.03


Tree=133
num_leaves=4
num_cat=0
split_feature=18 8 13
split_gain=25133 7278.21 7491.1
threshold=1.9698173972549312e-06 284.62740166666674 0.00039339065499995003
decision_type=2 2 2
left_child=-1 -2 -3
right_child=1 2 -4
leaf_value=0.17812728493446761 0.019000192121494036 -0.046732744092578764 -0.23223764777216316
leaf_weight=453 406 404 382
leaf_count=210 163 263 301
internal_value=-0.0117017 -0.084014 -0.137217
internal_weight=1645 1192 786
internal_count=937 727 564
is_linear=0
shrinkage=0.03


Tree=134
num_leaves=4
num_cat=0
split_feature=6 99 53
split_gain=23931.9 12913.2 7371.64
threshold=29.597413944444451 4384.0521396638896 3.3914168750000009e-07
decision_type=2 2 2
left_child=-1 2 -2
right_child=1 -3 -4
leaf_value=0.20202580884281471 -0.067712232137681544 0.018511696796394091 -0.2765466664124237
leaf_weight=366 307 668 304
leaf_count=144 244 392 157
internal_value=-0.0113521 -0.0726128 -0.172113
internal_weight=1645 1279 611
internal_count=937 793 401
is_linear=0
shrinkage=0.03


Tree=135
num_leaves=4
num_cat=0
split_feature=99 67 55
split_gain=30183.5 44721.8 9162.32
threshold=2959.5067747848539 1.5292008203401364 5.1300701486111121e-08
decision_type=2 2 2
left_child=2 -2 -1
right_child=1 -3 -4
leaf_value=-0.037192812086387868 0.32600440585579993 -0.078548780997960338 -0.26174195643462572
leaf_weight=333 469 514 322
leaf_count=234 214 298 178
internal_value=0.00954172 0.114625 -0.147996
internal_weight=1638 983 655
internal_count=924 512 412
is_linear=0
shrinkage=0.03


Tree=136
num_leaves=4
num_cat=0
split_feature=99 51 75
split_gain=28488.3 40459.7 9396.1
threshold=2568.8265157840005 6.1879502833333391e-07 0.027034612671978368
decision_type=2 2 2
left_child=-1 2 -2
right_child=1 -3 -4
leaf_value=-0.17258864443300775 -0.15675414667750359 0.34327582924825562 0.059708524147577831
leaf_weight=525 323 385 405
leaf_count=360 281 112 171
internal_value=0.00925159 0.0951825 -0.0363951
internal_weight=1638 1113 728
internal_count=924 564 452
is_linear=0
shrinkage=0.03


Tree=137
num_leaves=4
num_cat=0
split_feature=100 67 55
split_gain=27287.5 41635.8 8723.98
threshold=2959.5067747848539 1.5292008203401364 5.1300701486111121e-08
decision_type=2 2 2
left_child=2 -2 -1
right_child=1 -3 -4
leaf_value=-0.032709650658906304 0.31284980338192508 -0.077492168630996325 -0.25180010882541654
leaf_weight=333 469 514 322
leaf_count=234 214 298 178
internal_value=0.00897524 0.108891 -0.140813
internal_weight=1638 983 655
internal_count=924 512 412
is_linear=0
shrinkage=0.03


Tree=138
num_leaves=4
num_cat=0
split_feature=99 53 55
split_gain=25681.4 40108.4 8210.35
threshold=2959.5067747848539 3.9476235844444449e-07 5.1300701486111121e-08
decision_type=2 2 2
left_child=2 -2 -1
right_child=1 -3 -4
leaf_value=-0.031732760964487697 -0.048128040180890334 0.34384090858108013 -0.24428113306047744
leaf_weight=333 598 385 322
leaf_count=234 382 130 178
internal_value=0.00870216 0.105634 -0.13661
internal_weight=1638 983 655
internal_count=924 512 412
is_linear=0
shrinkage=0.03


Tree=139
num_leaves=3
num_cat=0
split_feature=100 67
split_gain=24341.8 40706.4
threshold=2460.5094969711113 1.5774167833333337
decision_type=2 2
left_child=-1 -2
right_child=1 -3
leaf_value=-0.16927023484706877 0.27407162224847953 -0.082955900034946545
leaf_weight=486 537 615
leaf_count=345 237 342
internal_value=0.00843917 0.083572
internal_weight=1638 1152
internal_count=924 579
is_linear=0
shrinkage=0.03


Tree=140
num_leaves=3
num_cat=0
split_feature=61 69
split_gain=30508.8 40498.6
threshold=0.70752835977086637 -1.3682391965719929
decision_type=2 2
left_child=-1 -2
right_child=1 -3
leaf_value=-0.1320279989108204 -0.064026282766470599 0.3289556259225071
leaf_weight=715 483 459
leaf_count=379 327 237
internal_value=0.0155413 0.127629
internal_weight=1657 942
internal_count=943 564
is_linear=0
shrinkage=0.03


Tree=141
num_leaves=4
num_cat=0
split_feature=99 18 83
split_gain=24821.3 45655.1 13103.6
threshold=2099.0851685084449 3.6368588406395531e-06 1.5000000000000002
decision_type=2 2 2
left_child=-1 -2 -3
right_child=1 2 -4
leaf_value=-0.20283881379344776 0.29512593129363612 0.085130433854211124 -0.16703723533701217
leaf_weight=365 516 303 473
leaf_count=275 153 180 335
internal_value=0.0150771 0.0768386 -0.0685427
internal_weight=1657 1292 776
internal_count=943 668 515
is_linear=0
shrinkage=0.03


Tree=142
num_leaves=3
num_cat=0
split_feature=61 58
split_gain=28324.9 37141
threshold=0.70742715770999254 5.0524816377219372e-08
decision_type=2 2
left_child=-1 -2
right_child=1 -3
leaf_value=-0.13039294671115706 -0.091549789828466996 0.28456075188556784
leaf_weight=699 418 540
leaf_count=366 331 246
internal_value=0.0146242 0.120521
internal_weight=1657 958
internal_count=943 577
is_linear=0
shrinkage=0.03


Tree=143
num_leaves=3
num_cat=0
split_feature=61 61
split_gain=26654.4 36267.1
threshold=0.70742715770999254 0.71109956016931031
decision_type=2 2
left_child=-1 -2
right_child=1 -3
leaf_value=-0.12648953505203414 0.25456464370816873 -0.12980099615569299
leaf_weight=699 615 343
leaf_count=366 306 271
internal_value=0.0141856 0.116913
internal_weight=1657 958
internal_count=943 577
is_linear=0
shrinkage=0.03


Tree=144
num_leaves=3
num_cat=0
split_feature=61 69
split_gain=25122.3 36999.3
threshold=0.70752835977086637 -1.3682391965719929
decision_type=2 2
left_child=-1 -2
right_child=1 -3
leaf_value=-0.1201485989316232 -0.067696004839781276 0.30791172593188887
leaf_weight=715 483 459
leaf_count=379 327 237
internal_value=0.0137583 0.115474
internal_weight=1657 942
internal_count=943 564
is_linear=0
shrinkage=0.03


Tree=145
num_leaves=4
num_cat=0
split_feature=61 73 99
split_gain=20534 21677.8 19452.1
threshold=0.70658008294779562 66.775157401385783 5233.9936635132954
decision_type=2 2 2
left_child=-1 -2 -3
right_child=1 2 -4
leaf_value=-0.18585890314865033 0.24483671100476911 -0.16207120043297379 0.12102019600131528
leaf_weight=458 359 472 404
leaf_count=248 134 334 242
internal_value=-0.0146123 0.0490066 -0.0314781
internal_weight=1693 1235 876
internal_count=958 710 576
is_linear=0
shrinkage=0.03


Tree=146
num_leaves=4
num_cat=0
split_feature=61 72 100
split_gain=19324.8 20401.5 18306.4
threshold=0.70658008294779562 66.775157401385783 5233.9936635132954
decision_type=2 2 2
left_child=-1 -2 -3
right_child=1 2 -4
leaf_value=-0.18030133707771104 0.23752217040271931 -0.15722446723656242 0.117403019666488
leaf_weight=458 359 472 404
leaf_count=248 134 334 242
internal_value=-0.0141727 0.0475438 -0.0305343
internal_weight=1693 1235 876
internal_count=958 710 576
is_linear=0
shrinkage=0.03


Tree=147
num_leaves=4
num_cat=0
split_feature=61 58 61
split_gain=18186.8 21080.3 10783.3
threshold=0.70658008294779562 5.9096394111111117e-08 0.70885973432058724
decision_type=2 2 2
left_child=-1 2 -2
right_child=1 -3 -4
leaf_value=-0.17490995556343109 0.067280380648543997 0.24387496141911921 -0.14176623332913296
leaf_weight=458 469 347 419
leaf_count=248 241 125 344
internal_value=-0.0137462 0.0461247 -0.0313797
internal_weight=1693 1235 888
internal_count=958 710 585
is_linear=0
shrinkage=0.03


Tree=148
num_leaves=4
num_cat=0
split_feature=99 80 99
split_gain=13458.6 23707.4 7741.34
threshold=1856.037237811111 13600.326330039105 5571.1953282500008
decision_type=2 2 2
left_child=-1 -2 -3
right_child=1 2 -4
leaf_value=-0.17458128044200824 0.20447388795839774 -0.17708960706308002 0.0077815997315780717
leaf_weight=364 461 324 544
leaf_count=259 134 222 343
internal_value=-0.0133332 0.0309443 -0.0613603
internal_weight=1693 1329 868
internal_count=958 699 565
is_linear=0
shrinkage=0.03


Tree=149
num_leaves=4
num_cat=0
split_feature=61 72 99
split_gain=16975.2 18529.2 16576
threshold=0.70658008294779562 66.775157401385783 5233.9936635132954
decision_type=2 2 2
left_child=-1 -2 -3
right_child=1 2 -4
leaf_value=-0.16863999605892271 0.2259572287100198 -0.15005673259410146 0.11126791335623963
leaf_weight=458 359 472 404
leaf_count=248 134 334 242
internal_value=-0.0129361 0.0449049 -0.0295017
internal_weight=1693 1235 876
internal_count=958 710 576
is_linear=0
shrinkage=0.03


Tree=150
num_leaves=4
num_cat=0
split_feature=99 67 59
split_gain=18039.5 31497.6 7559.56
threshold=1856.037237811111 1.0742009177777778 2.958575410694445e-07
decision_type=2 2 2
left_child=-1 -2 -3
right_child=1 2 -4
leaf_value=-0.20074099117832223 0.26015009227857694 0.040424368832957962 -0.13795693272624857
leaf_weight=337 414 387 474
leaf_count=256 174 267 234
internal_value=-0.00601619 0.0455924 -0.0577955
internal_weight=1612 1275 861
internal_count=931 675 501
is_linear=0
shrinkage=0.03


Tree=151
num_leaves=4
num_cat=0
split_feature=99 67 32
split_gain=16978 29642.3 9324.04
threshold=1856.037237811111 1.0742009177777778 2.5930505000000005e-07
decision_type=2 2 2
left_child=-1 -2 -3
right_child=1 2 -4
leaf_value=-0.19474544825370765 0.25237375805309104 0.04708387077261101 -0.1502177858831627
leaf_weight=337 414 411 450
leaf_count=256 174 231 270
internal_value=-0.00583593 0.0442304 -0.0560652
internal_weight=1612 1275 861
internal_count=931 675 501
is_linear=0
shrinkage=0.03


Tree=152
num_leaves=4
num_cat=0
split_feature=99 67 32
split_gain=15978.9 27896.4 8775
threshold=1856.037237811111 1.0742009177777778 2.5930505000000005e-07
decision_type=2 2 2
left_child=-1 -2 -3
right_child=1 2 -4
leaf_value=-0.18892897351101548 0.24482988209991519 0.045676489927010101 -0.14572622422933379
leaf_weight=337 414 411 450
leaf_count=256 174 231 270
internal_value=-0.00566128 0.0429087 -0.0543871
internal_weight=1612 1275 861
internal_count=931 675 501
is_linear=0
shrinkage=0.03


Tree=153
num_leaves=4
num_cat=0
split_feature=99 18 99
split_gain=15038.6 20433 15685.2
threshold=1856.037237811111 2.9277918152835589e-06 5571.1953282500008
decision_type=2 2 2
left_child=-1 -2 -3
right_child=1 2 -4
leaf_value=-0.18328622086972349 0.21200027216986753 -0.20433690880488484 0.059279072652788416
leaf_weight=337 422 330 523
leaf_count=256 131 222 322
internal_value=-0.00549184 0.0416266 -0.042833
internal_weight=1612 1275 853
internal_count=931 675 544
is_linear=0
shrinkage=0.03


Tree=154
num_leaves=4
num_cat=0
split_feature=100 67 32
split_gain=14153.3 26147.9 8243.6
threshold=1856.037237811111 1.0742009177777778 2.5930505000000005e-07
decision_type=2 2 2
left_child=-1 -2 -3
right_child=1 2 -4
leaf_value=-0.17781199999027053 0.23587272099316764 0.04317189272608269 -0.14234395446447637
leaf_weight=337 414 411 450
leaf_count=256 174 231 270
internal_value=-0.00532949 0.0403801 -0.0538144
internal_weight=1612 1275 861
internal_count=931 675 501
is_linear=0
shrinkage=0.03


Tree=155
num_leaves=4
num_cat=0
split_feature=70 8 33
split_gain=18490.2 11791.4 7601.62
threshold=2.6115238888889114 284.62740166666674 4.6519597833333338e-07
decision_type=2 2 2
left_child=-1 -2 -3
right_child=1 2 -4
leaf_value=0.19451465487499001 0.088875904476980391 -0.036090575100269036 -0.22257374478864669
leaf_weight=394 422 535 311
leaf_count=199 173 367 206
internal_value=0.0153938 -0.0403922 -0.10497
internal_weight=1662 1268 846
internal_count=945 746 573
is_linear=0
shrinkage=0.03


Tree=156
num_leaves=4
num_cat=0
split_feature=15 8 60
split_gain=17401.7 11097.6 7737.7
threshold=2.6115238888889114 284.62740166666674 4.9868700020833342e-07
decision_type=2 2 2
left_child=-1 -2 -3
right_child=1 2 -4
leaf_value=0.18870134767038951 0.086219071304291447 -0.021767858740140835 -0.20471012671708094
leaf_weight=394 422 477 369
leaf_count=199 173 387 186
internal_value=0.0149319 -0.0391865 -0.101836
internal_weight=1662 1268 846
internal_count=945 746 573
is_linear=0
shrinkage=0.03


Tree=157
num_leaves=4
num_cat=0
split_feature=61 7 12
split_gain=19067.5 28191.8 9282.08
threshold=0.70692225061257929 291.52464078465067 17.000571776715798
decision_type=2 2 2
left_child=-1 -2 -3
right_child=1 2 -4
leaf_value=-0.13314350622351534 0.26872102795042369 0.09408427466927749 -0.13023219988820028
leaf_weight=533 448 282 399
leaf_count=296 163 189 297
internal_value=0.0144844 0.0843034 -0.0372749
internal_weight=1662 1129 681
internal_count=945 649 486
is_linear=0
shrinkage=0.03


Tree=158
num_leaves=4
num_cat=0
split_feature=15 32 100
split_gain=16414.7 10401.9 9176.32
threshold=2.6115238888889114 2.0581109000000002e-07 5677.6603107216679
decision_type=2 2 2
left_child=-1 -2 -3
right_child=1 2 -4
leaf_value=0.18282238609316454 0.085975429392232128 -0.19096944716879694 0.004956470170439666
leaf_weight=394 408 450 410
leaf_count=199 237 249 260
internal_value=0.0140517 -0.0385082 -0.0976647
internal_weight=1662 1268 860
internal_count=945 746 509
is_linear=0
shrinkage=0.03


Tree=159
num_leaves=4
num_cat=0
split_feature=61 7 12
split_gain=18001.7 26642.3 8694.05
threshold=0.70692225061257929 291.52464078465067 17.000571776715798
decision_type=2 2 2
left_child=-1 -2 -3
right_child=1 2 -4
leaf_value=-0.12980837746994645 0.26075302525940408 0.090415158446030638 -0.12667841940225286
leaf_weight=533 448 282 399
leaf_count=296 163 189 297
internal_value=0.0136332 0.0814741 -0.0367136
internal_weight=1662 1129 681
internal_count=945 649 486
is_linear=0
shrinkage=0.03


Tree=160
num_leaves=3
num_cat=0
split_feature=61 61
split_gain=14166.6 26523.1
threshold=0.70726732865799158 0.70982895100284793
decision_type=2 2
left_child=-1 -2
right_child=1 -3
leaf_value=-0.082201785985107065 0.22367444376386289 -0.08103339146589604
leaf_weight=714 589 454
leaf_count=378 268 331
internal_value=0.0206219 0.0910714
internal_weight=1757 1043
internal_count=977 599
is_linear=0
shrinkage=0.03


Tree=161
num_leaves=5
num_cat=0
split_feature=59 11 58 53
split_gain=14311.5 8476.24 10919.9 5525.67
threshold=4.4625707162500008e-07 -0.18416580504490096 5.2959203173611122e-08 2.305399201666667e-07
decision_type=2 2 2 2
left_child=1 2 3 -1
right_child=-2 -3 -4 -5
leaf_value=0.08127190804812133 0.15920535792896784 0.098265201112145553 -0.21930014810135992 -0.096949715440615647
leaf_weight=323 481 329 323 301
leaf_count=239 187 197 161 193
internal_value=0.0200033 -0.0325603 -0.0781418 -0.00465157
internal_weight=1757 1276 947 624
internal_count=977 790 593 432
is_linear=0
shrinkage=0.03


Tree=162
num_leaves=4
num_cat=0
split_feature=6 99 26
split_gain=13699.6 10906.9 7493.29
threshold=27.483731611111114 5366.8063661527785 2.8669553333333339e-07
decision_type=2 2 2
left_child=-1 2 -2
right_child=1 -3 -4
leaf_value=0.18039407978388908 0.0016337834039180398 0.067903254804845159 -0.18786253052698823
leaf_weight=373 346 630 408
leaf_count=142 247 363 225
internal_value=0.0194038 -0.0241004 -0.101015
internal_weight=1757 1384 754
internal_count=977 835 472
is_linear=0
shrinkage=0.03


Tree=163
num_leaves=4
num_cat=0
split_feature=99 18 99
split_gain=13780 30596.5 11743.8
threshold=1879.1961052438892 2.9277918152835589e-06 5955.2272639888906
decision_type=2 2 2
left_child=-1 -2 -3
right_child=1 2 -4
leaf_value=-0.14344570210296284 0.2625109408366148 -0.15962099477816583 0.055552877533813598
leaf_weight=370 458 398 531
leaf_count=271 137 239 330
internal_value=0.018824 0.0622521 -0.0366918
internal_weight=1757 1387 929
internal_count=977 706 569
is_linear=0
shrinkage=0.03


Tree=164
num_leaves=3
num_cat=0
split_feature=49 99
split_gain=13267.1 22361.2
threshold=3.576604550000003e-08 3433.420338086667
decision_type=2 2
left_child=-1 -2
right_child=1 -3
leaf_value=-0.14260920121715431 -0.058042115381981368 0.18211581832897689
leaf_weight=364 706 687
leaf_count=313 397 267
internal_value=0.0182589 0.0604352
internal_weight=1757 1393
internal_count=977 664
is_linear=0
shrinkage=0.03


Tree=165
num_leaves=4
num_cat=0
split_feature=61 10 0
split_gain=13273.4 18777 2391.98
threshold=0.70738387354331511 0.59720707388888894 2.7289631333333339e-07
decision_type=2 2 2
left_child=-1 -2 -3
right_child=1 2 -4
leaf_value=-0.10494784499331504 0.2396078983197262 0.025552625991128789 -0.092935720751699022
leaf_weight=693 356 303 307
leaf_count=369 167 243 169
internal_value=-0.00486079 0.0669457 -0.0340881
internal_weight=1659 966 610
internal_count=948 579 412
is_linear=0
shrinkage=0.03


Tree=166
num_leaves=4
num_cat=0
split_feature=99 80 33
split_gain=10551.8 22059 9232.88
threshold=3666.6303841748704 39016.799822341003 3.6948821700000005e-07
decision_type=2 2 2
left_child=2 -2 -1
right_child=1 -3 -4
leaf_value=0.025635631733639225 0.21610736644365913 -0.093429741767472402 -0.17448105353392687
leaf_weight=391 440 389 439
leaf_count=262 149 314 223
internal_value=-0.00471233 0.0708996 -0.0802789
internal_weight=1659 829 830
internal_count=948 463 485
is_linear=0
shrinkage=0.03


Tree=167
num_leaves=3
num_cat=0
split_feature=69 63
split_gain=12463.2 9049.44
threshold=-0.66537661937104398 0.1560363807062273
decision_type=2 2
left_child=1 -1
right_child=-2 -3
leaf_value=-0.19239130288322065 0.08943013745393083 -0.0018048694075047194
leaf_weight=367 718 574
leaf_count=223 370 355
internal_value=-0.00457086 -0.0763712
internal_weight=1659 941
internal_count=948 578
is_linear=0
shrinkage=0.03


Tree=168
num_leaves=3
num_cat=0
split_feature=61 69
split_gain=12295.2 22442.7
threshold=0.70733447205773325 -0.66537661937104398
decision_type=2 2
left_child=-1 -2
right_child=1 -3
leaf_value=-0.10196705002231568 -0.049044349063080167 0.24665560608348214
leaf_weight=683 604 372
leaf_count=365 394 189
internal_value=-0.00443657 0.0638205
internal_weight=1659 976
internal_count=948 583
is_linear=0
shrinkage=0.03


Tree=169
num_leaves=3
num_cat=0
split_feature=61 69
split_gain=11596.2 21834.7
threshold=0.70738387354331511 -0.66537661937104398
decision_type=2 2
left_child=-1 -2
right_child=1 -3
leaf_value=-0.09785274605771635 -0.047576664625324804 0.24656061439476445
leaf_weight=693 604 362
leaf_count=369 394 185
internal_value=-0.00430088 0.0628136
internal_weight=1659 966
internal_count=948 579
is_linear=0
shrinkage=0.03


Tree=170
num_leaves=4
num_cat=0
split_feature=72 38 66
split_gain=12109.2 8951.77 5961.33
threshold=53.90938301673301 3.0673244000000006e-07 -1.0335082461111107
decision_type=2 2 2
left_child=-1 2 -2
right_child=1 -3 -4
leaf_value=0.12719513414989816 -0.06380797280228237 -0.1464683074590474 0.11346073594111114
leaf_weight=411 392 581 300
leaf_count=153 257 356 189
internal_value=-0.014064 -0.0598021 0.0130569
internal_weight=1684 1273 692
internal_count=955 802 446
is_linear=0
shrinkage=0.03


Tree=171
num_leaves=4
num_cat=0
split_feature=35 8 14
split_gain=11491.6 12594.6 4810.02
threshold=289.32541744444455 287.97593722222229 98416.770833333358
decision_type=2 2 2
left_child=-1 -2 -3
right_child=1 2 -4
leaf_value=-0.15873639654940905 0.10920532544430682 0.012364380020517408 -0.16333553017719327
leaf_weight=379 746 269 290
leaf_count=178 314 263 200
internal_value=-0.0136404 0.028598 -0.0788987
internal_weight=1684 1305 559
internal_count=955 777 463
is_linear=0
shrinkage=0.03


Tree=172
num_leaves=4
num_cat=0
split_feature=72 59 101
split_gain=11132.5 10295 6347.14
threshold=53.90938301673301 3.491658650694445e-07 293.77092796296307
decision_type=2 2 2
left_child=-1 2 -2
right_child=1 -3 -4
leaf_value=0.12220549984845247 0.094788531932031142 -0.16106643404350049 -0.078260713713230748
leaf_weight=411 401 511 361
leaf_count=153 206 253 343
internal_value=-0.0132358 -0.0570919 0.0127543
internal_weight=1684 1273 762
internal_count=955 802 549
is_linear=0
shrinkage=0.03


Tree=173
num_leaves=4
num_cat=0
split_feature=35 58 59
split_gain=10702.8 11598.7 7944.78
threshold=289.32541744444455 5.0524816377219372e-08 2.958575410694445e-07
decision_type=2 2 2
left_child=-1 2 -2
right_child=1 -3 -4
leaf_value=-0.15286735632964721 0.023295266227116494 0.11800954639233803 -0.18954781883251415
leaf_weight=379 399 647 259
leaf_count=178 336 272 169
internal_value=-0.0128385 0.0279233 -0.0606557
internal_weight=1684 1305 658
internal_count=955 777 505
is_linear=0
shrinkage=0.03


Tree=174
num_leaves=4
num_cat=0
split_feature=72 59 101
split_gain=10354.1 9444.93 5973.92
threshold=53.90938301673301 3.491658650694445e-07 293.77092796296307
decision_type=2 2 2
left_child=-1 2 -2
right_child=1 -3 -4
leaf_value=0.1181608803440224 0.09173214910248792 -0.15434396252544916 -0.076151958759951177
leaf_weight=411 401 511 361
leaf_count=153 206 253 343
internal_value=-0.0124579 -0.0547542 0.0121442
internal_weight=1684 1273 762
internal_count=955 802 549
is_linear=0
shrinkage=0.03


Tree=175
num_leaves=4
num_cat=0
split_feature=100 23 32
split_gain=12620 22188.8 9174.05
threshold=3699.7934909500004 294.04518611111115 2.7982557086666676e-07
decision_type=2 2 2
left_child=2 -2 -1
right_child=1 -3 -4
leaf_value=0.027256625801447058 0.22655371461752299 -0.094788683373901172 -0.17041714905577918
leaf_weight=410 461 331 433
leaf_count=278 182 256 220
internal_value=0.00634812 0.0922733 -0.0743459
internal_weight=1635 792 843
internal_count=936 438 498
is_linear=0
shrinkage=0.03


Tree=176
num_leaves=4
num_cat=0
split_feature=11 72 53
split_gain=11953.6 13521.4 10308.9
threshold=-0.13045561488888882 66.775157401385783 2.6917063416666675e-07
decision_type=2 2 2
left_child=1 -1 -3
right_child=-2 2 -4
leaf_value=0.10396335823596663 0.14496360012266388 0.0030470711566192191 -0.2086770789971796
leaf_weight=391 415 388 441
leaf_count=142 214 313 267
internal_value=0.00615654 -0.0411438 -0.109702
internal_weight=1635 1220 829
internal_count=936 722 580
is_linear=0
shrinkage=0.03


Tree=177
num_leaves=4
num_cat=0
split_feature=99 55 32
split_gain=12040.1 20389 8582.61
threshold=3699.7934909500004 5.6291884816666679e-08 2.7982557086666676e-07
decision_type=2 2 2
left_child=2 -2 -1
right_child=1 -3 -4
leaf_value=0.025428799091524838 -0.049316129237585674 0.25575653014183042 -0.16576580415815287
leaf_weight=410 431 361 433
leaf_count=278 278 160 220
internal_value=0.00597386 0.0899024 -0.0728434
internal_weight=1635 792 843
internal_count=936 438 498
is_linear=0
shrinkage=0.03


Tree=178
num_leaves=4
num_cat=0
split_feature=99 23 32
split_gain=11330.8 20579.9 8077.33
threshold=3699.7934909500004 294.04518611111115 2.7982557086666676e-07
decision_type=2 2 2
left_child=2 -2 -1
right_child=1 -3 -4
leaf_value=0.024668716180702967 0.21653897041565665 -0.092929149075446263 -0.16080999770858703
leaf_weight=410 461 331 433
leaf_count=278 182 256 220
internal_value=0.00579564 0.0872153 -0.070664
internal_weight=1635 792 843
internal_count=936 438 498
is_linear=0
shrinkage=0.03


Tree=179
num_leaves=4
num_cat=0
split_feature=11 72 53
split_gain=11114.3 13142 9778.64
threshold=-0.13045561488888882 66.775157401385783 2.6917063416666675e-07
decision_type=2 2 2
left_child=1 -1 -3
right_child=-2 2 -4
leaf_value=0.10306740477434388 0.1394671861228107 0.0022321224134219317 -0.20397364488850203
leaf_weight=391 415 388 441
leaf_count=142 214 313 267
internal_value=0.0056206 -0.0399877 -0.107578
internal_weight=1635 1220 829
internal_count=936 722 580
is_linear=0
shrinkage=0.03


Tree=180
num_leaves=3
num_cat=0
split_feature=18 99
split_gain=13994.2 18838.6
threshold=2.0611809230538711e-06 5571.1953282500008
decision_type=2 2
left_child=-1 -2
right_child=1 -3
leaf_value=0.15670286705751676 -0.15493445727745378 0.083516984218088411
leaf_weight=461 605 585
leaf_count=206 386 342
internal_value=0.0166354 -0.0377172
internal_weight=1651 1190
internal_count=934 728
is_linear=0
shrinkage=0.03


Tree=181
num_leaves=4
num_cat=0
split_feature=93 83 60
split_gain=12414.3 11601.2 9259.38
threshold=2.6115238888889114 1.5000000000000002 4.2466760243888894e-07
decision_type=2 2 2
left_child=-1 -2 -3
right_child=1 2 -4
leaf_value=0.16178777625119881 0.08443306538239044 -0.0066519117772713037 -0.2156140163442834
leaf_weight=398 485 416 352
leaf_count=206 239 290 199
internal_value=0.0161387 -0.0302272 -0.102718
internal_weight=1651 1253 768
internal_count=934 728 489
is_linear=0
shrinkage=0.03


Tree=182
num_leaves=3
num_cat=0
split_feature=18 100
split_gain=13058.5 17953.6
threshold=2.0611809230538711e-06 5571.1953282500008
decision_type=2 2
left_child=-1 -2
right_child=1 -3
leaf_value=0.15095913902714445 -0.15127977695281911 0.081502833899415442
leaf_weight=461 605 585
leaf_count=206 386 342
internal_value=0.0156544 -0.0368483
internal_weight=1651 1190
internal_count=934 728
is_linear=0
shrinkage=0.03


Tree=183
num_leaves=3
num_cat=0
split_feature=18 99
split_gain=12288.9 16895.3
threshold=2.0611809230538711e-06 5571.1953282500008
decision_type=2 2
left_child=-1 -2
right_child=1 -3
leaf_value=0.14644505210889353 -0.14675260743226085 0.079064003112999839
leaf_weight=461 605 585
leaf_count=206 386 342
internal_value=0.0151869 -0.0357444
internal_weight=1651 1190
internal_count=934 728
is_linear=0
shrinkage=0.03


Tree=184
num_leaves=4
num_cat=0
split_feature=71 8 8
split_gain=11791.7 10719.6 6156.34
threshold=2.6115238888889114 284.62740166666674 287.34028444444453
decision_type=2 2 2
left_child=-1 -2 -3
right_child=1 2 -4
leaf_value=0.15668513424461417 0.083555282389451646 -0.20886806850502004 -0.034373600013015058
leaf_weight=398 465 285 503
leaf_count=206 183 165 380
internal_value=0.0147335 -0.0304533 -0.0978178
internal_weight=1651 1253 788
internal_count=934 728 545
is_linear=0
shrinkage=0.03


Tree=185
num_leaves=4
num_cat=0
split_feature=70 70 83
split_gain=12070 7906.34 13734.6
threshold=2.6115238888889114 4.2489105555555406 1.5000000000000002
decision_type=2 2 2
left_child=-1 -2 -3
right_child=1 2 -4
leaf_value=0.14944621530510019 -0.14857957886708847 0.15735353314550946 -0.095758480895330636
leaf_weight=359 446 328 464
leaf_count=191 230 175 335
internal_value=-0.00331347 -0.0477749 0.00910828
internal_weight=1597 1238 792
internal_count=931 740 510
is_linear=0
shrinkage=0.03


Tree=186
num_leaves=4
num_cat=0
split_feature=15 12 83
split_gain=11359.3 7444.28 12782.3
threshold=2.6115238888889114 43.099238516880597 1.5000000000000002
decision_type=2 2 2
left_child=-1 2 -2
right_child=1 -3 -4
leaf_value=0.14498148697031848 0.15136421821166093 -0.14484728145260856 -0.092274186068801889
leaf_weight=359 329 442 467
leaf_count=191 176 226 338
internal_value=-0.00321146 -0.0463448 0.00846447
internal_weight=1597 1238 796
internal_count=931 740 514
is_linear=0
shrinkage=0.03


Tree=187
num_leaves=4
num_cat=0
split_feature=15 12 83
split_gain=10690.4 7005.99 12029.9
threshold=2.6115238888889114 43.099238516880597 1.5000000000000002
decision_type=2 2 2
left_child=-1 2 -2
right_child=1 -3 -4
leaf_value=0.14065014021365221 0.14684390327655084 -0.14051655863765564 -0.089514823699531051
leaf_weight=359 329 442 467
leaf_count=191 176 226 338
internal_value=-0.00311261 -0.0449575 0.00821218
internal_weight=1597 1238 796
internal_count=931 740 514
is_linear=0
shrinkage=0.03


Tree=188
num_leaves=4
num_cat=0
split_feature=99 75 32
split_gain=10089.3 21681.1 5324
threshold=3583.6101164600004 0.031303603450434231 3.2393830500000007e-07
decision_type=2 2 2
left_child=2 -2 -1
right_child=1 -3 -4
leaf_value=-0.011163536694308345 -0.095496040097940924 0.20909945445596287 -0.17156623342770522
leaf_weight=419 390 453 335
leaf_count=296 321 150 164
internal_value=-0.00301677 0.0682108 -0.0826887
internal_weight=1597 843 754
internal_count=931 471 460
is_linear=0
shrinkage=0.03


Tree=189
num_leaves=4
num_cat=0
split_feature=70 12 83
split_gain=10253.4 6598.83 11259.5
threshold=2.6115238888889114 43.099238516880597 1.5000000000000002
decision_type=2 2 2
left_child=-1 2 -2
right_child=1 -3 -4
leaf_value=0.13786435217373125 0.14181162249223639 -0.13665116750669856 -0.086854092669588767
leaf_weight=359 329 442 467
leaf_count=191 176 226 338
internal_value=-0.00292906 -0.0439106 0.00768978
internal_weight=1597 1238 796
internal_count=931 740 514
is_linear=0
shrinkage=0.03


Tree=190
num_leaves=4
num_cat=0
